%YAML:1.0
---
opencv_ml_svm:
   format: 3
   svmType: C_SVC
   kernel:
      type: LINEAR
   C: 1.
   term_criteria: { iterations:10000 }
   var_count: 200
   class_count: 13
   class_labels: !!opencv-matrix
      rows: 13
      cols: 1
      dt: i
      data: [ 0, 1, 2, 3, 4, 5, 6, 7, 8, 9, 10, 11, 12 ]
   sv_total: 78
   support_vectors:
      - [ 0., 3.01685906e-03, 0., 0., 0., 0., 2.12833695e-02, 0., 0., 0.,
          -8.71364251e-02, 0., 0., 0., 6.58530518e-02, 0., 0., 0., 0.,
          0., 0., 0., 2.49887127e-02, 0., 0., 0., -2.68647131e-02, 0.,
          0., 0., 4.08643410e-02, 0., 0., 0., 0., 0., 4.55835983e-02,
          8.40167180e-02, 0., 0., 0., 0., 0., 0., 2.49887127e-02, 0.,
          6.38501048e-02, 0., 0., 2.49887127e-02, 9.37961191e-02, 0.,
          2.49887127e-02, 0., 4.25667390e-02, 4.38812003e-02, 0., 0., 0.,
          0., 0., 3.93153122e-03, 0., -2.40740404e-02, 1.00807019e-01,
          0., 0., 3.01685906e-03, 0., 0., 0., -1.56232521e-01, 0., 0.,
          0., 0., 0., 0., 3.01685906e-03, 2.58408785e-02, 0., 0., 0., 0.,
          0., 2.49887127e-02, 0., 3.01685906e-03, 0., 0., 0., 0., 0.,
          4.08643410e-02, 0., 0., 2.49887127e-02, 4.08643410e-02, 0., 0.,
          0., 0., 0., 0., 0., 1.24521606e-01, 0., 0., 0., 0., 0., 0., 0.,
          0., 0., 0., 0., 0., 0., 0., 3.01685906e-03, 0., 2.12833695e-02,
          0., 0., 0., 0., -2.26187112e-04, -1.61460727e-01, 0., 0., 0.,
          0., 0., -2.40740404e-02, 0., 0., 0., 0., 2.49887127e-02, 0.,
          0., 0., 0., 2.80055720e-02, 0., 0., 0., 0., 3.01685906e-03, 0.,
          -6.30623847e-02, 4.08643410e-02, 0., 0., 0., 8.88388231e-02,
          0., 0., 0., 3.10224313e-02, 9.14672273e-04, -2.40740404e-02,
          3.01685906e-03, 0., -6.30623847e-02, 0., 0., 0.,
          -9.01532844e-02, 8.71364251e-02, 3.01685906e-03, 0., 0., 0.,
          0., 0., 0., -6.60792440e-02, 2.49887127e-02, 0.,
          3.01685906e-03, 0., 6.58530518e-02, 8.35580304e-02,
          2.12833695e-02, 0., 0., 0., 0., 0., 0., 2.43002288e-02, 0., 0.,
          0., 3.01685906e-03, 0., 2.49887127e-02, 0. ]
      - [ -4.05464545e-02, -4.19366881e-02, 0., 0., 0., 0.,
          -1.58710964e-02, -3.77745461e-03, 0., -7.86583424e-02,
          -2.91355681e-02, 0., 0., -3.71922590e-02, 2.68432405e-02, 0.,
          -1.69241130e-02, -7.55490921e-03, 0., 0., 0., 0.,
          -9.72361397e-03, 0., 0., 0., 3.46476473e-02, -8.97873286e-03,
          -8.64715222e-03, -1.19753298e-03, 6.97193891e-02,
          -5.01831546e-02, -4.41159271e-02, 0., -3.77745461e-03,
          -1.03952564e-01, 6.69269636e-02, 1.43766373e-01, 0., 0.,
          -4.21672463e-02, 0., 0., 0., 4.15933086e-03, 0.,
          1.41330078e-01, -2.53089331e-03, 0., 1.40934438e-02,
          1.31007984e-01, -1.19753298e-03, -6.49838522e-02, 0.,
          9.42200497e-02, 5.31311184e-02, 0., -2.77902652e-02,
          -8.97873286e-03, -1.19753298e-03, 0., 3.53961857e-03, 0.,
          -2.77902652e-02, -2.67199837e-02, -4.16792603e-03,
          -4.32026684e-02, -5.26720434e-02, -1.19753298e-03,
          -2.53089331e-03, 0., -9.06463265e-02, -3.89683098e-02,
          -5.07427529e-02, 0., 0., 0., 0., 2.42433678e-02,
          6.81702644e-02, 0., 0., -3.72842653e-03, -2.77902652e-02,
          -4.16975878e-02, 2.16897875e-02, 0., -6.38946816e-02, 0., 0.,
          -8.97873286e-03, -1.00295782e-01, 0., -1.80829599e-01,
          -4.86969762e-03, 0., -2.85801664e-02, 3.05784475e-02, 0.,
          -3.71922590e-02, 0., 0., 0., -4.97498782e-03, 0.,
          6.79487884e-02, -4.20619585e-02, -1.19753298e-03, 0., 0.,
          -4.16792603e-03, 0., 0., -3.71922590e-02, 0., 0., 0.,
          -2.53089331e-03, 0., 0., 2.17124745e-02, -3.77745461e-03,
          4.71100248e-02, 0., 0., 0., -4.45928499e-02, 9.30668414e-03,
          1.31969545e-02, 0., 0., -8.97873286e-03, 0., -4.86969762e-03,
          -9.53338481e-03, -6.17252057e-03, -3.71922590e-02,
          -1.19753298e-03, 0., 2.54672430e-02, -7.50588113e-03,
          -4.86969762e-03, 0., 0., 4.97106127e-02, 0., 0.,
          -3.68943214e-02, -4.41159271e-02, -3.40206511e-02,
          -7.94538017e-03, -2.41605807e-02, 7.46943727e-02, 0., 0., 0.,
          2.54313126e-02, 0., -1.19753298e-03, 0., 6.60576299e-02,
          -2.67709810e-02, -3.71922590e-02, 2.04659142e-02, 0.,
          1.51004549e-02, -9.03762318e-03, -3.94252166e-02, 0.,
          -1.17838137e-01, 1.01398587e-01, -3.54689732e-03, 0., 0., 0.,
          0., 0., -4.53134589e-02, 0., 2.54672430e-02, -8.02696049e-02,
          2.42433678e-02, 0., 8.99853483e-02, 2.50549048e-01,
          4.71100248e-02, -4.86969762e-03, -7.50588113e-03, 0.,
          -4.97498782e-03, 0., 0., -2.55302470e-02, 0., 0., 0.,
          -6.86329901e-02, 0., 1.67638287e-02, 0. ]
      - [ -1.08832354e-02, -8.23960640e-03, 0., 0., 0., 0.,
          -4.18152148e-03, 0., -1.08832354e-02, 0., 2.64362898e-03, 0.,
          0., 0., -2.02285796e-02, 0., 0., -5.13359867e-02, 0., 0., 0.,
          0., 1.88643169e-02, 0., 0., -5.13359867e-02, -4.46342714e-02,
          0., -6.22192211e-02, 0., 2.31263265e-02, 0., 0., 0., 0., 0.,
          -2.44056918e-02, -5.49842743e-03, 0., 0., 0., 0., 0., 0.,
          7.98108056e-03, 0., 2.01051421e-02, 0., 0., 1.88643169e-02,
          1.00360110e-01, 0., 1.88643169e-02, 0., 1.34034287e-02,
          -1.50004476e-01, 0., 0., 0., -5.13359867e-02, -5.13359867e-02,
          -8.11640248e-02, 0., -1.08832354e-02, -5.85547499e-02, 0.,
          -5.13359867e-02, -3.78091224e-02, 0., 0., 0., -1.08832354e-02,
          0., 0., 0., 0., 0., 0., 1.35268643e-02, 6.37069196e-02, 0., 0.,
          0., -1.08832354e-02, -1.24438442e-01, 1.88643169e-02, 0.,
          -3.78091224e-02, 0., -1.08832354e-02, 0., 0., 0.,
          2.31263265e-02, 0., 0., 7.98108056e-03, -2.82096602e-02, 0.,
          0., 0., 0., 0., 0., 0., -3.36705483e-02, 0., 0., 0., 0., 0.,
          0., 0., 0., 0., 0., 0., 0., 0., 0., 1.35268643e-02,
          -1.08832354e-02, 6.70171436e-03, 0., 0., 0., 0.,
          4.19906415e-02, 7.98108056e-03, 0., 0., 0., 0., 0., 0., 0., 0.,
          0., 0., 1.88643169e-02, 0., 0., 0., 0., 3.23911831e-02, 0., 0.,
          0., 0., 1.35268643e-02, 0., -8.13420638e-02, 1.22430902e-02,
          0., 0., 0., 3.89694609e-02, 0., 0., 0., 4.59180474e-02,
          1.88643169e-02, 0., 1.35268643e-02, 0., -3.78091224e-02,
          -5.13359867e-02, 0., 0., -7.31024593e-02, 4.86923568e-02,
          -3.78091224e-02, 0., 0., 0., 0., 0., 0., 0., 1.88643169e-02,
          0., 1.35268643e-02, 0., 3.11074071e-02, -2.17708796e-02,
          6.70171436e-03, 0., -5.13359867e-02, -1.08832354e-02,
          -1.08832354e-02, 0., 0., 9.34534334e-03, 0., 0., 0.,
          2.64362898e-03, 0., 1.88643169e-02, 0. ]
      - [ 0., 1.39288781e-02, 0., 0., -1.25761773e-03, 0.,
          5.08455448e-02, 0., 0., -1.25761773e-03, -7.69114494e-03, 0.,
          0., 0., 8.37507397e-02, -1.55711360e-02, -6.85107149e-03, 0.,
          0., 0., 0., 0., 1.60510000e-02, 0., 0., 0., 6.56837672e-02, 0.,
          0., 0., 6.76997378e-02, 0., 0., 0., 0., -7.61493146e-02,
          1.45296410e-01, 8.99396390e-02, 0., 0., 0., 0., 0., 0.,
          -1.48830600e-02, 0., 1.97051302e-01, -2.16200240e-02, 0.,
          1.60510000e-02, 1.75543860e-01, -2.16200240e-02,
          1.60510000e-02, 0., 6.80642352e-02, -8.88633206e-02, 0.,
          -1.62788555e-02, 0., -4.79305051e-02, 0., -4.01531495e-02, 0.,
          -2.51523545e-03, 3.35017592e-02, -1.55711360e-02,
          -1.25761773e-03, 1.39288781e-02, 0., 0., 0., -1.48382215e-02,
          -2.24222075e-02, 0., 0., -1.55711360e-02, 0., 0.,
          -7.69114494e-03, 1.09486371e-01, 0., 0., 0., 0., 0.,
          9.19992942e-03, 0., 1.39288781e-02, 0., 0., -7.69148320e-02,
          0., 0., 2.12098677e-02, 0., -6.85107149e-03, -5.63829206e-03,
          6.76997378e-02, -5.52948080e-02, -2.16200240e-02, 0., 0., 0.,
          0., 0., -3.97397354e-02, 0., 0., 0., 0., 0., 0., 0., 0., 0.,
          0., 0., 0., -2.16200240e-02, -1.48382215e-02, 1.14136431e-02,
          -4.72227857e-02, 6.56837672e-02, 0., 0., 0., -3.16516496e-02,
          6.21307157e-02, -1.56006478e-02, 0., 0., 0., 0., 0.,
          -5.28063700e-02, 0., 0., 0., 0., 1.60510000e-02, 0.,
          -2.41352580e-02, 0., 0., 2.99798790e-02, -2.16200240e-02, 0.,
          0., 0., -1.77227706e-02, -1.25761773e-03, -2.93111671e-02,
          6.76997378e-02, 0., 0., 0., 9.89963040e-02, 0., 0., 0.,
          5.45998104e-03, 1.60510000e-02, 0., 1.39288781e-02, 0.,
          -1.64225732e-03, -1.25761773e-03, 0., 0., 0., 4.13343906e-02,
          1.39288781e-02, 0., 0., 0., -1.48382215e-02, 0., 0.,
          -3.41668837e-02, 1.60510000e-02, 0., 1.39288781e-02, 0.,
          6.19399063e-02, 3.30864877e-01, 4.40637432e-02,
          -1.48382215e-02, 0., 0., 0., 0., 0., -2.32846569e-03, 0., 0.,
          0., 1.39288781e-02, -1.55711360e-02, 1.60510000e-02, 0. ]
      - [ 0., 2.64681820e-02, 0., 0., 0., 0., 1.46691632e-02, 0., 0.,
          -5.74066350e-03, 2.64681820e-02, 0., 0., 0., 1.98695824e-01,
          0., 0., 0., 0., 0., -5.74066350e-03, 0., 6.29603863e-02, 0.,
          0., 0., -3.15482169e-02, 0., 0., 0., 1.47216767e-01, 0., 0.,
          0., 0., -1.15954645e-01, 8.92734379e-02, 2.68285722e-01, 0.,
          0., 0., 0., 0., 0., -1.48093700e-01, 0., 2.06877291e-01, 0.,
          0., 6.29603863e-02, 1.79521427e-01, 0., 6.29603863e-02, 0.,
          -4.36349697e-02, -1.59064457e-01, 0., 0., 0., 0., 0.,
          8.94285664e-02, 0., 0., -8.33332613e-02, 0., 0.,
          -1.48099259e-01, 0., 0., 0., 0., -8.14349055e-02, 0., 0., 0.,
          0., 0., 2.64681820e-02, 1.33488774e-01, 0., 0., 0., 0., 0.,
          6.29603863e-02, 0., 2.64681820e-02, 0., 0., 0., 0., 0.,
          1.47216767e-01, 0., 0., -1.11607052e-01, 1.47216767e-01, 0.,
          0., 0., 0., 0., 0., 0., 1.09604634e-01, 0., 0., 0., 0., 0., 0.,
          0., 0., -8.71755630e-02, 0., 0., 0., 0., 0., 2.64681820e-02,
          0., 9.61040631e-02, 0., 0., 0., 0., 2.10177153e-01,
          -6.07909588e-03, 0., 0., 0., -8.14349055e-02, 0., 0., 0., 0.,
          0., 0., 6.29603863e-02, 0., 0., 0., 0., 8.94285664e-02,
          -5.74066350e-03, 0., -8.14349055e-02, 0., 2.64681820e-02, 0.,
          2.64681820e-02, 1.41476095e-01, 0., 0., 0., 1.51916131e-01, 0.,
          0., 0., -2.02480028e-03, -6.07909588e-03, 0., 2.64681820e-02,
          0., 2.64681820e-02, 0., 0., 0., 0., 1.88359663e-01,
          -1.36401623e-01, 0., 0., 0., 0., 0., 0., 0., 6.29603863e-02,
          -3.45197432e-02, 2.64681820e-02, 0., 1.28742248e-01,
          8.48839581e-02, 9.61040631e-02, 0., -5.74066350e-03, 0., 0.,
          0., 0., 8.80525038e-02, 0., 0., 0., -8.05156026e-03, 0.,
          6.29603863e-02, 0. ]
      - [ 0., -4.30003107e-02, 0., 0., 0., 0., 4.06700931e-02, 0., 0.,
          -7.50150718e-03, 7.81060755e-03, 0., 0., -3.91403474e-02,
          5.06474115e-02, -3.66937718e-03, 0., 0., 0., 0., 0., 0.,
          4.38047195e-04, -7.50150718e-03, 0., 0., 4.06700931e-02, 0.,
          -2.03477312e-02, 0., 5.38787432e-02, 0., 0., 0., 0.,
          -5.06481677e-02, 9.64895487e-02, 4.39823186e-03, 0., 0., 0.,
          0., 0., 0., -3.23133008e-03, 0., 7.76701868e-02,
          -2.76741143e-02, 0., 4.38047195e-04, 1.35167778e-01, 0.,
          4.38047195e-04, 0., 8.86789411e-02, 3.03458571e-02, 0., 0., 0.,
          0., 0., 4.57927724e-03, -2.03477312e-02, 0., 7.49553293e-02,
          -7.33875437e-03, -3.66937718e-03, -5.16774729e-02, 0.,
          -3.66937718e-03, 0., -1.36725709e-01, -2.29324643e-02, 0., 0.,
          0., 0., 0., -5.93407899e-02, 7.73105621e-02, 0., 0., 0.,
          -3.66937718e-03, -2.76741143e-02, -2.72360668e-02, 0.,
          -4.75376211e-02, 0., 0., 0., 0., 0., -8.36835951e-02, 0., 0.,
          -1.10281846e-02, 3.35310102e-02, 0., -2.80119926e-02, 0., 0.,
          0., 0., 0., -1.07395396e-01, 0., 0., 0., 0., 0.,
          -3.94772813e-02, -3.66937718e-03, 0., 0., 0., -3.66937718e-03,
          0., -1.14662321e-02, 0., 7.81060755e-03, -3.66937718e-03,
          4.43394706e-02, 0., 0., 0., 0., 1.11701302e-02,
          -3.09054442e-02, 0., 0., 0., 0., 0., -1.14662321e-02, 0., 0.,
          0., 0., 4.38047195e-04, -2.03477312e-02, 0., 0., 0.,
          8.24865419e-03, -2.76741143e-02, 0., -2.41798609e-02, 0.,
          -1.25371246e-02, 0., 7.81060755e-03, 5.00466116e-02, 0., 0.,
          0., 1.21990226e-01, 0., 0., 0., 1.60592627e-02,
          -2.72360668e-02, 0., 7.81060755e-03, 0., 7.81060755e-03, 0.,
          -3.94772813e-02, -2.76741143e-02, -5.53482287e-02,
          9.86562595e-02, -3.65562458e-03, 0., -1.14662321e-02, 0., 0.,
          0., 0., 0., 4.38047195e-04, 0., 7.81060755e-03, 0.,
          1.10073769e-02, 2.15100452e-01, 4.05073427e-02, 0., 0., 0.,
          -3.66937718e-03, -3.94772813e-02, -1.14662321e-02,
          -1.83639191e-02, 0., 0., 0., 7.81060755e-03, -3.94772813e-02,
          4.38047195e-04, 0. ]
      - [ -1.57349370e-02, -1.08900666e-02, 0., 0., -3.25514786e-02, 0.,
          4.22006585e-02, 0., 0., 0., 4.84487088e-03, 0., 0., 0.,
          -7.77326152e-02, 0., -1.57349370e-02, 0., -1.57349370e-02,
          -1.68165397e-02, 0., 0., -1.29587678e-02, 0., -1.57349370e-02,
          0., 8.56758095e-03, 0., -4.64220271e-02, -1.57349370e-02,
          2.91518029e-02, 0., 0., -1.68165397e-02, 0., -1.68165397e-02,
          8.92461911e-02, 2.28631198e-02, 0., 0., 0., 0., 0., 0.,
          -1.29587678e-02, -4.64220271e-02, 1.09785438e-01, 0., 0.,
          -2.97753084e-02, 7.76830912e-02, 0., -1.29587678e-02, 0.,
          8.44013169e-02, 1.71801336e-02, 0., -1.57349370e-02, 0.,
          -1.57349370e-02, -3.36330794e-02, -2.60120388e-02, 0.,
          -3.14698741e-02, 5.20149209e-02, -4.64220271e-02, 0.,
          4.84487088e-03, 0., 0., 0., -1.09660588e-01, -3.25514786e-02,
          -1.57349370e-02, 0., 0., 0., 0., 4.84487088e-03,
          1.00533357e-02, 0., 0., 0., 0., 0., 2.77616899e-03, 0.,
          4.84487088e-03, 0., 0., -3.25514786e-02, 0., -1.57349370e-02,
          2.91518029e-02, 0., 0., 2.77616899e-03, 2.91518029e-02, 0., 0.,
          0., 0., 0., 0., 0., -1.37850896e-01, 0., 0., 0., 0., 0., 0.,
          0., 0., 0., 0., 0., 0., 0., -3.25514786e-02, -1.19716683e-02,
          -6.61845580e-02, 4.22006585e-02, 0., 0., -1.57349370e-02, 0.,
          -6.23505388e-04, -1.40403705e-02, 0., -1.68165397e-02, 0., 0.,
          0., -4.64220271e-02, 0., 0., 0., 0., -1.40403705e-02,
          -1.57349370e-02, -8.19194913e-02, 0., 0., 7.62104010e-03, 0.,
          -1.68165397e-02, -1.57349370e-02, 0., -4.45231460e-02,
          -4.64220271e-02, 4.84487088e-03, 2.91518029e-02, 0., 0., 0.,
          -2.67044660e-02, 0., 0., 0., -2.11671684e-02, 2.77616899e-03,
          0., 4.84487088e-03, 0., 4.84487088e-03, 0., 0., 0., 0.,
          7.41286278e-02, 4.84487088e-03, 0., 0., 0., 0., 0., 0., 0.,
          2.77616899e-03, 0., 4.84487088e-03, -3.25514786e-02,
          -3.13105918e-02, 1.42829448e-01, 4.22006585e-02, 0.,
          -1.57349370e-02, -1.68165397e-02, -1.68165397e-02, 0., 0.,
          -6.66426495e-02, 0., 0., 0., -5.73120899e-02, 0.,
          2.77616899e-03, 0. ]
      - [ 0., -3.30557674e-02, 0., 0., 0., 0., 0., 0., 0., 0.,
          7.74161005e-03, 0., 0., 0., 1.26570780e-02, 0., 0., 0., 0., 0.,
          0., 0., 1.09512992e-02, 0., 0., 0., 0., 0., 0., 0.,
          -1.86929088e-02, 0., 0., 0., 0., -2.03986876e-02,
          7.74161005e-03, 5.60787283e-02, 0., 0., 0., 0., 0., 0.,
          1.09512992e-02, 0., 0., 0., 0., 1.09512992e-02, 3.43779959e-02,
          -6.11960627e-02, 1.09512992e-02, 0., 0., -3.13499868e-02, 0.,
          0., 0., -2.03986876e-02, -2.03986876e-02, -1.70577841e-03, 0.,
          0., -1.25803679e-01, 0., 0., 7.74161005e-03, 0., 0., 0., 0.,
          0., 0., 0., 0., 0., 0., -1.26570780e-02, 2.49306075e-02, 0.,
          0., 0., 0., -2.03986876e-02, 1.09512992e-02, 0.,
          7.74161005e-03, 0., 0., 0., 0., 0., 1.70577841e-03, 0., 0.,
          1.09512992e-02, 1.70577841e-03, -2.03986876e-02, 0., 0., 0.,
          0., 0., 0., -2.96442080e-02, 0., 0., 0., 0., 0., 0., 0., 0.,
          0., 0., 0., 0., 0., 0., 7.74161005e-03, 0., 0., 0., 0., 0., 0.,
          1.26570780e-02, -2.98460759e-02, 0., 0., 0., 0., 0., 0., 0.,
          0., 0., 0., 1.09512992e-02, 0., 0., 0., 0., 1.86929088e-02,
          -2.03986876e-02, 0., -4.07973751e-02, 0., 7.74161005e-03, 0.,
          -5.34544550e-02, 1.70577841e-03, 0., 0., 0., 1.09512992e-02,
          0., 0., 0., -1.43628567e-02, -9.44738835e-03, 0.,
          7.74161005e-03, 0., 7.74161005e-03, 0., 0., 0.,
          -4.07973751e-02, 1.26570780e-02, 7.74161005e-03, 0., 0., 0.,
          0., 0., 0., 0., 1.09512992e-02, 0., 7.74161005e-03, 0.,
          1.26570780e-02, 4.91546793e-03, 0., 0., 0., 0., 0., 0., 0.,
          7.74161005e-03, 0., 0., 0., 7.74161005e-03, 0., 1.09512992e-02,
          0. ]
      - [ 0., 0., 0., 0., 0., 0., -1.80146825e-02, 0., 0., 0., 0., 0.,
          0., 0., 1.87934132e-03, 0., 0., 0., 0., 0., 0., 0.,
          5.29369526e-02, 0., 0., 0., 4.42699417e-02, 0., 0., 0.,
          1.14214823e-01, 0., 0., 0., 0., -3.53952497e-02,
          1.54040664e-01, 1.58810869e-01, 0., 0., 0., 0., 0., 0.,
          1.37787387e-02, -7.05921501e-02, 2.31060997e-01, 0., 0.,
          5.29369526e-02, 2.28429645e-01, 0., 1.37787387e-02, 0.,
          6.59967139e-02, -6.08379692e-02, 0., 0., 0., 0., 0.,
          1.75417047e-02, 0., 0., 5.05599901e-02, 0., 0.,
          -7.43551180e-02, 0., 0., 0., -2.44428664e-02, 0.,
          -3.91582139e-02, 0., 0., 0., 0., 0., 1.14214823e-01, 0., 0.,
          0., 0., 0., 5.29369526e-02, 0., 0., 0., 0., 0., 0., 0.,
          1.14214823e-01, -3.27503905e-02, 0., 5.29369526e-02,
          1.14214823e-01, 0., 0., 0., 0., 0., 0., 0., 7.39057213e-02, 0.,
          0., 0., 0., 0., 0., 0., 0., 0., 0., 0., 0., 0., 0.,
          -4.88857329e-02, 0., 4.42699417e-02, 0., 0., 0., 0.,
          1.67151779e-01, 5.29369526e-02, 0., 0., 0., 0., 0., 0.,
          -1.07540330e-02, 0., 0., -2.44428664e-02, 5.29369526e-02, 0.,
          0., 0., -1.01671353e-01, 5.29369526e-02, 0., 0., 0., 0., 0.,
          0., -8.80439505e-02, 1.14214823e-01, 0., 0., 0.,
          3.71508151e-02, 0., 0., 0., 5.29369526e-02, -7.42652118e-02,
          0., 0., 0., 0., 0., 0., -1.34421751e-01, -1.01671353e-01,
          2.44172111e-01, 0., 0., -3.53952497e-02, 0., 0., 0., 0., 0.,
          5.29369526e-02, 0., 0., -1.01671353e-01, 1.56397745e-01,
          1.00048728e-01, 7.70203322e-02, 0., 0., 0., -3.53952497e-02,
          0., 0., 7.70203322e-02, 0., 0., -3.53952497e-02,
          -1.07540330e-02, 0., 5.29369526e-02, 0. ]
      - [ 0., -4.40405635e-03, 0., 0., -3.42995115e-02, 0.,
          -3.37991379e-02, -1.14625283e-02, 0., 0., 1.85209997e-02, 0.,
          0., 0., 2.07692496e-02, 0., -4.57620397e-02, 0., 0., 0., 0.,
          0., 6.84153475e-03, 0., 0., 0., -4.99073835e-03,
          -1.14625283e-02, 0., 0., 1.39277149e-02, 0., 0., 0., 0.,
          -3.42995115e-02, 4.24468033e-02, 1.10475190e-01, 0., 0.,
          -6.85990229e-02, 0., 0., 0., 1.83040630e-02, 0.,
          -9.87333152e-03, 0., 0., -6.17574863e-02, 3.92237492e-02,
          -1.69536415e-02, 1.83040630e-02, 0., -2.18362343e-02,
          -8.74915347e-02, 0., 0., 0., -3.43875848e-02, 0.,
          8.40889383e-03, -1.69536415e-02, -1.14625283e-02,
          -1.88783273e-01, 0., 0., -1.57785118e-02, 0., 0., 0., 0., 0.,
          -1.14625283e-02, 0., 0., 0., 0., 7.05847191e-03,
          1.86297912e-02, 0., 0., 0., -3.42995115e-02, 0.,
          -1.59954485e-02, 0., -5.00780232e-02, 0., 0., 0., 0., 0.,
          1.39277149e-02, 0., 0., 1.35042216e-03, 1.39277149e-02, 0.,
          -3.42995115e-02, 0., 0., 0., 0., 0., 1.40583441e-02, 0., 0.,
          0., 0., 0., 0., 0., 0., -1.14625283e-02, 0., 0., 0., 0., 0.,
          1.85209997e-02, 0., 1.19629027e-02, 0., 0., -1.14625283e-02,
          0., 3.22317779e-02, 1.83040630e-02, 0., 0., -1.69536415e-02,
          0., 0., 0., 0., 0., 0., -3.42995115e-02, 1.83040630e-02,
          -1.69536415e-02, 0., 0., 0., 3.68250646e-02, -1.14625283e-02,
          0., 0., 0., 7.05847191e-03, -1.69536415e-02, 1.56735897e-03,
          1.39277149e-02, 0., 0., 0., 2.02854890e-02, 0., 0., 0.,
          2.69298945e-02, 6.84153475e-03, 0., 1.85209997e-02, 0.,
          1.85209997e-02, 0., 0., 0., -1.53847530e-01, 4.41946797e-02,
          1.85209997e-02, 0., 0., 0., 0., 0., 0., -3.39072831e-02,
          1.83040630e-02, 0., 1.85209997e-02, 0., 3.22317779e-02,
          5.30010276e-02, -1.09621538e-02, -1.69536415e-02,
          -1.69536415e-02, 0., 0., 0., 0., 1.90213751e-02, 0., 0., 0.,
          1.85209997e-02, 0., 1.83040630e-02, 0. ]
      - [ 0., 2.46243849e-02, 0., 0., -4.72264029e-02, 0.,
          1.24257319e-02, 0., -3.74257304e-02, 0., 2.46243849e-02, 0.,
          0., 0., 8.48001316e-02, 0., 0., 0., 0., 0., 0., 0.,
          2.40309853e-02, 0., -4.72264029e-02, 0., 1.05481837e-02, 0.,
          0., 0., 1.26728639e-01, -1.58038773e-02, 0., 0., 0.,
          -1.10214308e-01, 1.24327302e-01, 1.78872824e-01, 0., 0., 0.,
          0., 0., 0., -2.31954195e-02, 0., 1.49554387e-01, 0., 0.,
          4.87268306e-02, 2.57501990e-01, 0., 4.87268306e-02, 0.,
          8.38990435e-02, 4.57602404e-02, 0., 0., 0., -3.74257304e-02,
          0., 7.33512118e-02, 0., -3.34853046e-02, -5.52487234e-03, 0.,
          0., -6.00277483e-02, 0., 0., 0., -1.49236657e-02, 0.,
          -6.40276149e-02, -1.58038773e-02, 0., 0., 0., 2.46243849e-02,
          1.16961738e-02, 0., 0., 0., -6.21500686e-02, -5.32296076e-02,
          4.87268306e-02, 0., 9.70071927e-03, 0., 0., 0.,
          -1.87754759e-03, 0., 1.26728639e-01, 0., 0., -7.83310682e-02,
          1.26728639e-01, -3.74257304e-02, -2.46958453e-02, 0., 0., 0.,
          0., 0., 1.00807259e-02, -2.98473313e-02, 0., 0., 0., 0., 0.,
          0., -3.74257304e-02, 0., 0., 0., 0., 0., 0., 2.46243849e-02,
          -1.76814254e-02, 4.98514622e-02, 0., 0., 0., 0.,
          1.38029739e-01, 4.87268306e-02, 0., 0., 0., 0., 0., 0., 0., 0.,
          0., 0., 3.29229534e-02, 0., -3.74257304e-02, 0., 0.,
          7.33512118e-02, 0., 0., 0., 0., 9.70071927e-03, 0.,
          -1.68005988e-01, 1.26728639e-01, 0., 0., 0., 1.98281214e-01,
          0., 0., 0., 7.32026342e-03, 1.13011012e-02, 0., 2.46243849e-02,
          0., -3.94032337e-02, -3.16077545e-02, 0., 0., -1.34551629e-01,
          2.25306928e-01, 2.46243849e-02, 0., 0., 0., 0., 0., 0.,
          -1.58038773e-02, 1.13011012e-02, 0., 2.46243849e-02, 0.,
          1.75455466e-01, 8.26050565e-02, 4.98514622e-02, 0.,
          -1.58038773e-02, 0., 0., -3.74257304e-02, 0., 4.46285158e-02,
          0., 0., 0., -1.28013445e-02, 0., 4.87268306e-02,
          -2.46958453e-02 ]
      - [ 0., -1.53884366e-01, 0., 0., 0., 0., 2.79113445e-02, 0., 0.,
          -1.20357787e-02, 5.48639288e-03, 0., -1.20357787e-02,
          -1.14847487e-02, 4.16076630e-02, -2.06908723e-03,
          -1.97594091e-02, 0., 0., -1.19715743e-02, 0., 0.,
          2.71575134e-02, 0., 0., -1.14847487e-02, -3.33281443e-03, 0.,
          0., 0., -1.32541172e-02, -4.42164727e-02, 0., 0.,
          -5.51029749e-04, -3.44542451e-02, 2.53524352e-02,
          1.32385969e-01, 0., 0., 0., 0., 0., 0., 2.71575134e-02,
          -1.20357787e-02, 1.11991754e-02, 0., 0., 2.71575134e-02,
          1.11745298e-01, -1.20357787e-02, 2.71575134e-02, 0.,
          -1.55247394e-02, -4.67997193e-02, 0., -2.06908723e-03, 0., 0.,
          -2.06908723e-03, 4.71661246e-04, 0., 0., -2.10243464e-01,
          -1.19715743e-02, -1.14847487e-02, -7.58508742e-02, 0., 0., 0.,
          0., 0., -1.14847487e-02, 0., -2.06908723e-03, 0., 0.,
          -4.71702628e-02, 8.09848085e-02, 0., 0., 0., -2.08864398e-02,
          -3.22820134e-02, 1.56727638e-02, 0., -1.18129030e-02, 0., 0.,
          0., 0., 0., -2.29811622e-03, 0., 0., -6.76715001e-02,
          1.86334131e-03, -1.97594091e-02, 0., 0., 0., 0., 0., 0.,
          -6.92441091e-02, 0., 0., 0., 0., 0., 0., 0., 0., 0., 0.,
          -5.51029749e-04, 0., -6.09647371e-02, 0., 1.69711411e-02,
          -4.47675027e-02, 2.84623727e-02, 0., 0., -1.97594091e-02, 0.,
          6.13670722e-02, 2.71575134e-02, 0., 0., -4.42164727e-02,
          -3.12441587e-02, 0., 0., 0., 0., 0., -2.06908723e-03,
          2.71575134e-02, -2.60764398e-02, -2.06908723e-03, 0., 0.,
          4.41286564e-02, -2.55896151e-02, 0., -4.42164727e-02, 0.,
          1.64201111e-02, 0., -3.64354886e-02, 3.42095606e-02, 0., 0.,
          0., 4.00951467e-02, 0., 0., 0., 1.99029166e-02,
          -6.26061037e-02, 0., 5.48639288e-03, 0., -5.43428659e-02, 0.,
          -2.06908723e-03, 0., -1.69632494e-01, 8.98294449e-02,
          -1.17486985e-02, 0., 0., 0., -1.67482663e-02, 0., 0.,
          -2.62011704e-03, -1.70589592e-02, 0., 1.69711411e-02, 0.,
          4.78132367e-02, -5.23966178e-03, 2.84623727e-02,
          -2.18284968e-02, 0., -5.51029749e-04, 0., -1.67482663e-02, 0.,
          2.24640183e-02, 0., 0., -1.20357787e-02, 1.69711411e-02, 0.,
          2.71575134e-02, 0. ]
      - [ -7.35235400e-04, -5.02309855e-03, 0., 0., 0., 0.,
          -3.26771545e-03, 0., 0., -1.00992091e-01, 9.55244303e-02, 0.,
          0., -4.28786315e-03, -7.53051490e-02, 0., -3.20649594e-02, 0.,
          0., 0., 0., 0., -1.01550799e-02, 0., 0., 0., 4.95453877e-03,
          0., -2.53248005e-03, 0., 0., -5.15490025e-02, -4.90165241e-02,
          0., 0., -1.46618500e-01, -3.78232934e-02, -3.20649594e-02, 0.,
          0., -5.02309855e-03, 0., 0., 0., -4.65497635e-02, 0., 0., 0.,
          0., 0., -2.12214254e-02, 0., -8.53693485e-02, -7.35235400e-04,
          -6.88736467e-03, -4.14848067e-02, -7.35235400e-04, 0.,
          -7.35235400e-04, -7.35235400e-04, 0., -2.01482465e-03, 0.,
          -1.00312196e-02, -5.38726002e-02, -3.20649594e-02,
          -4.92298082e-02, -8.57572630e-03, 0., 0., 0., 1.62985384e-01,
          -3.26771545e-03, -5.86496517e-02, 0., 0., 0., 0., 0.,
          -7.36469729e-03, 0., 0., 0., -6.88736467e-03, -3.78651544e-02,
          0., 0., -7.16855004e-02, 0., 0., 0., -8.79018307e-02, 0.,
          -1.42628923e-01, -2.53248005e-03, 0., -5.84363677e-02,
          -4.90165241e-02, 0., -1.11752283e-02, 0., 0., 0., 0., 0.,
          -1.44681141e-01, -7.55557884e-03, 0., 0., 0., -3.20649594e-02,
          0., 0., -4.28786315e-03, 0., 0., 0., 0., 0., 0., 0.,
          -1.37747293e-02, 0., 0., 0., 0., -6.82034343e-03,
          4.02319133e-02, 1.53192848e-01, 0., 0., -6.88736467e-03, 0.,
          -1.63072087e-02, -6.03864118e-02, 0., -4.28786315e-03, 0., 0.,
          0., -6.88736467e-03, -2.53248005e-03, 0., 0., 0., 0., 0.,
          -4.92298082e-02, -4.90165241e-02, -1.00880591e-02,
          -3.89523245e-02, 9.17809159e-02, 0., 0., 0., 0.,
          -1.50530562e-01, 0., -6.88736467e-03, 0., -3.20649594e-02,
          -9.96419881e-03, -1.27958914e-03, -7.35235400e-04, 0.,
          1.02058403e-01, -4.14848067e-02, -5.61171733e-02, 0.,
          1.19104637e-02, -4.92298082e-02, 0., 0., 0., 0., 0., 0.,
          -4.90165241e-02, 1.41010731e-01, 0., -1.11752283e-02, 0., 0.,
          0., 1.02490790e-01, 0., -2.53248005e-03, 0., 0., 0.,
          -7.35235400e-04, 0., -6.09688498e-02, 0., 0., 0.,
          -2.74154153e-02, 0., 0., 0. ]
      - [ -6.47208700e-03, -1.29441740e-02, 0., 0., 0., 0.,
          -6.47208700e-03, 0., -6.47208700e-03, 0., 3.50894779e-02, 0.,
          0., 0., -4.15615626e-02, 0., 0., -3.50894779e-02, 0., 0., 0.,
          0., 0., 0., 0., -3.50894779e-02, -8.77549872e-03, 0.,
          -4.15615626e-02, 0., 0., 0., 0., 0., 0., 0., -3.50894779e-02,
          -7.01789558e-02, 0., 0., 0., 0., 0., 0., -6.47208700e-03, 0.,
          0., 0., 0., 0., 0., 0., 0., 0., 0., -1.24684691e-01, 0., 0.,
          0., -3.50894779e-02, -3.50894779e-02, -6.34940490e-02, 0.,
          6.68490212e-03, -1.02326572e-01, 0., -3.50894779e-02,
          -3.50894779e-02, 0., 0., 0., 6.34940490e-02, 0., 0., 0., 0.,
          0., 0., 0., 1.31569887e-02, 0., 0., 0., -6.47208700e-03,
          -8.31231251e-02, 0., 0., -3.50894779e-02, 0., -6.47208700e-03,
          0., 0., 0., 0., 0., 0., -6.47208700e-03, -3.50894779e-02, 0.,
          0., 0., 0., 0., 0., 0., -6.34940490e-02, 0., 0., 0., 0., 0.,
          0., 0., 0., 0., 0., 0., 0., 0., 0., 0., -6.47208700e-03, 0.,
          0., 0., 0., 0., 2.84045748e-02, 8.77174288e-02, 0., 0., 0., 0.,
          0., 1.31569887e-02, 0., 0., 0., 0., 0., 0., 0., 0., 0., 0., 0.,
          0., 0., 0., 0., 0., -3.25732492e-02, -6.47208700e-03, 0., 0.,
          0., 0., 0., 0., 0., 0., 1.31569887e-02, 1.31569887e-02, 0., 0.,
          -6.68490212e-03, -3.50894779e-02, 0., 0., -6.47208700e-03, 0.,
          -3.50894779e-02, 0., 0., 0., 0., 0., 0., 2.84045748e-02, 0.,
          0., 0., 0., -6.47208700e-03, -4.11359333e-02, 0., 0.,
          -3.50894779e-02, -6.47208700e-03, -6.47208700e-03, 0., 0.,
          -6.47208700e-03, 0., 0., 0., -6.47208700e-03, 0., 0., 0. ]
      - [ 0., 0., 0., 0., -1.03803584e-02, 0., -4.65755053e-02, 0., 0.,
          -1.03803584e-02, 1.48615941e-01, 0., 0., 0., 0., 0., 0., 0.,
          0., 0., 0., 0., 0., 0., 0., 0., 1.56613532e-02, 0., 0., 0., 0.,
          0., 0., 0., 0., -3.88899669e-02, 0., 0., 0., 0., 0., 0., 0.,
          0., -6.21345714e-02, 0., 0., 0., 0., 0., 0., 0., 0., 0.,
          -5.70192151e-02, -1.12358481e-01, 0., -6.10361844e-02, 0.,
          -8.95457938e-02, 0., -2.01607216e-02, 0., -1.29300412e-02,
          -2.27932222e-02, 0., -1.03803584e-02, 0., 0., 0., 0.,
          2.63524115e-01, 0., 0., 0., 0., 0., 0., 0., 7.83067662e-03, 0.,
          0., 0., -2.06983984e-02, 0., 0., 0., 0., 0., 0.,
          -2.11429130e-03, 0., 0., -5.43867126e-02, 0., 0.,
          -2.58771069e-02, 0., -2.11429130e-03, 0., 0., 0., 0., 0., 0.,
          -1.33640528e-01, 0., 0., 0., 0., 0., 0., 0., 0., 0., 0., 0.,
          0., 0., -2.58771069e-02, -2.07607169e-02, -2.85096075e-02, 0.,
          0., 0., 0., -4.92080078e-02, 1.20086871e-01, 1.51429042e-01,
          0., 0., 0., 0., 0., -1.04959719e-01, 0., 0., 0., 0., 0., 0.,
          -2.07607169e-02, 0., 0., 0., -2.06983984e-02, 0., 0., 0.,
          -2.85096075e-02, -3.10787577e-02, 7.86900744e-02, 0., 0., 0.,
          0., -2.11429130e-03, 0., 0., 0., -3.10787577e-02,
          7.83067662e-03, 7.83067662e-03, 0., 0., 1.40785277e-01,
          -3.10787577e-02, 0., -2.06983984e-02, 1.48615941e-01, 0., 0.,
          0., 0., 0., -2.58771069e-02, 0., 0., 9.15149450e-02, 0., 0.,
          0., 0., -1.03803584e-02, 1.64277300e-01, 0., -2.58771069e-02,
          0., 0., 0., -2.06983984e-02, 0., -6.10361844e-02, 0., 0., 0.,
          0., 0., 0., 0. ]
      - [ 0., 0., 0., 0., 0., 0., -2.07896885e-02, 0., 0., 0.,
          1.29115105e-01, 0., 0., 0., -1.37887653e-02, 0., 0., 0., 0.,
          0., 0., 0., 0., 0., 0., 0., 1.82206370e-02, 0.,
          -1.37887653e-02, 0., 0., 0., 0., 0., 0., -5.29889055e-02,
          -6.23374283e-02, 0., 0., 0., 0., 0., 0., 0., -6.23374283e-02,
          0., -7.00092269e-03, 0., 0., 0., -4.59879860e-02, 0.,
          -1.37887653e-02, 0., -1.24674857e-01, -1.42903864e-01, 0., 0.,
          0., 0., 0., 3.21043096e-02, 0., 3.21043096e-02,
          -1.40438095e-01, 0., 0., -2.07896885e-02, 0., 0., 0.,
          2.26125896e-01, -7.00092269e-03, 0., 0., 0., 0., 0., 0.,
          3.21043096e-02, 0., 0., 0., 0., 0., 0., 0., 0., 0., 0., 0., 0.,
          0., 0., 0., 0., -7.00092269e-03, 0., 0., 0., 0., 0., 0., 0.,
          0., -9.46631953e-02, 0., 0., 0., 0., 0., 0., 0., 0.,
          -7.00092269e-03, 0., 0., 0., 0., 0., 0., 0., 0., 0., 0., 0.,
          0., 9.70107913e-02, 1.65556371e-01, 0., 0., 0.,
          -7.00092269e-03, 0., 3.21043096e-02, 0., 0., 0., 0., 0., 0.,
          0., 0., 0., 0., 0., 0., -7.00092269e-03, 0., 0., 0.,
          9.70107913e-02, 0., 0., 0., 0., -6.93383515e-02, 0., 0., 0.,
          -6.23374283e-02, -5.98716587e-02, 3.21043096e-02, 0., 0.,
          9.70107913e-02, 0., 0., 0., 1.29115105e-01, -6.23374283e-02,
          -2.77906097e-02, 0., 0., 0., 0., 0., 0., 9.70107913e-02, 0.,
          -4.59879860e-02, 0., 0., -7.00092269e-03, 2.49768421e-02, 0.,
          0., 0., 0., 0., 0., -1.37887653e-02, -4.59879860e-02, 0., 0.,
          0., -4.59879860e-02, 0., 0., 0. ]
      - [ 0., -4.30326313e-02, 0., 0., 0., 0., 0., 0., 0., 0.,
          1.08901076e-01, 0., 0., -6.58684447e-02, 0., 0., 0., 0., 0.,
          0., 0., 0., 0., 0., 0., 0., 1.20639866e-02, 0., 0., 0., 0., 0.,
          0., 0., 0., -4.30326313e-02, 0., 0., 0., 0., 0., 0., 0., 0.,
          0., 0., -7.86576495e-02, -3.93288247e-02, 0., 0., 0., 0., 0.,
          0., 0., -3.93288247e-02, 0., 0., 0., 0., 0., 6.03199331e-03,
          0., 6.03199331e-03, 6.03199331e-03, 0., 0., -6.58684447e-02,
          0., 0., 0., 1.04610184e-02, -5.30792363e-02, 0., 0., 0., 0.,
          0., -8.23614597e-02, 6.03199331e-03, 0., 0., 0., 0.,
          -3.93288247e-02, -3.93288247e-02, 0., -7.86576495e-02, 0., 0.,
          0., 0., 0., -1.55637518e-01, 0., 0., -2.65396181e-02, 0., 0.,
          0., 0., 0., 0., 0., 0., -2.38309771e-01, 0., 0., 0., 0., 0.,
          -4.30326313e-02, 0., 0., 0., 0., 0., 0., -2.65396181e-02, 0.,
          0., 0., 0., 0., 0., 0., 0., 5.98364510e-02, 9.37002227e-02, 0.,
          0., 0., 0., 0., -2.05076262e-02, 0., 0., 0., 0., 0., 0., 0.,
          0., 0., 0., -3.93288247e-02, 0., 0., 0., 0., 0.,
          1.02869079e-01, 0., 0., 0., 0., -2.65396181e-02, 0., 0., 0.,
          0., -3.32968310e-02, 6.03199331e-03, 0., 0., 1.02869079e-01,
          0., -4.30326313e-02, -3.93288247e-02, 3.02434228e-02, 0.,
          -2.65396181e-02, 0., -2.65396181e-02, 0., 0., 0., 0.,
          1.02869079e-01, 0., 0., 0., 0., -4.30326313e-02,
          1.20965064e-01, 0., 0., 0., 0., 0., -4.30326313e-02,
          -2.65396181e-02, -7.86576495e-02, 0., 0., 0., 0.,
          -4.30326313e-02, 0., 0. ]
      - [ -1.13183092e-02, -1.13183092e-02, 0., 0., -2.55935863e-02, 0.,
          0., 0., 0., 0., 5.08146808e-02, 0., 0., 0., -6.47174641e-02,
          0., -1.13183092e-02, 0., -1.13183092e-02, -1.42752770e-02, 0.,
          0., -1.13183092e-02, 0., -1.13183092e-02, 0., -1.09385401e-02,
          0., -2.52210926e-02, -1.13183092e-02, 0., 0., 0.,
          -1.42752770e-02, 0., -1.42752770e-02, 0., 0., 0., 0., 0., 0.,
          0., 0., -1.13183092e-02, -2.52210926e-02, -1.42752770e-02, 0.,
          0., -2.55935863e-02, 0., 0., -1.13183092e-02, 0., 0.,
          -1.42752770e-02, 0., -1.13183092e-02, 0., -1.13183092e-02,
          -2.85505541e-02, -1.97445471e-02, 0., -1.38306115e-02,
          8.80600791e-03, -2.52210926e-02, 0., 0., 0., 0., 0.,
          2.81058885e-02, -2.55935863e-02, -1.13183092e-02, 0., 0., 0.,
          0., 0., -1.97445471e-02, 0., 0., 0., 0., 0., 0., 0., 0., 0.,
          0., -2.55935863e-02, 0., -1.13183092e-02, 0., 0., 0., 0., 0.,
          0., 0., 0., 0., 0., 0., 0., -1.88166276e-01, 0., 0., 0., 0.,
          0., 0., 0., 0., 0., 0., 0., 0., 0., -2.55935863e-02,
          -1.42752770e-02, -5.41441403e-02, 0., 0., 0., -1.13183092e-02,
          0., 1.64150856e-02, 7.17634335e-02, 0., -1.42752770e-02, 0.,
          0., 0., -1.64150856e-02, 0., 0., 0., 0., -1.42752770e-02,
          -1.13183092e-02, -6.54624552e-02, 0., 0., 0., 0.,
          -1.42752770e-02, -1.13183092e-02, 0., -3.98688652e-02,
          -2.52210926e-02, 4.20086719e-02, 0., 0., 0., 0.,
          -8.99385512e-02, 0., 0., 0., -2.85505541e-02, 8.80600791e-03,
          8.80600791e-03, 0., 0., 4.20086719e-02, 0., 0., 0.,
          5.08146808e-02, 0., 0., 0., 0., 0., 0., 0., 0., 4.20086719e-02,
          0., 0., 0., -2.55935863e-02, -3.94963697e-02, 6.84266910e-02,
          0., 0., -1.13183092e-02, -1.42752770e-02, -1.42752770e-02, 0.,
          0., -8.23222026e-02, 0., 0., 0., -3.65394019e-02, 0., 0., 0. ]
      - [ 0., -3.28086913e-02, 0., 0., 0., 0., 0., 0., 0., 0.,
          1.64043456e-02, 0., 0., 0., 0., 0., 0., 0., 0., 0., 0., 0., 0.,
          0., 0., 0., 1.95078701e-02, 0., 0., 0., -1.64043456e-02, 0.,
          0., 0., 0., -1.64043456e-02, 0., 0., 0., 0., 0., 0., 0., 0.,
          0., 0., 0., 0., 0., 0., 0., -4.92130332e-02, 0., 0., 0.,
          -3.28086913e-02, 0., 0., 0., -1.64043456e-02, -1.64043456e-02,
          -6.65041013e-03, 0., 9.75393504e-03, -1.37885168e-01, 0., 0.,
          0., 0., 0., 0., 2.30547544e-02, 0., 0., 0., 0., 0., 0.,
          -1.64043456e-02, 9.75393504e-03, 0., 0., 0., 0.,
          -1.64043456e-02, 0., 0., 0., 0., 0., 0., 0., 0., 0., 0., 0.,
          0., 0., -1.64043456e-02, 0., 0., 0., 0., 0., 0.,
          -2.30547544e-02, 0., 0., 0., 0., 0., 0., 0., 0., 0., 0., 0.,
          0., 0., 0., 0., 0., 0., 0., 0., 0., 0., 6.65041013e-03,
          2.26113945e-02, 0., 0., 0., 0., 0., 9.75393504e-03, 0., 0., 0.,
          0., 0., 0., 0., 0., 0., 0., -1.64043456e-02, 0.,
          -3.28086913e-02, 0., 0., 0., -4.25626263e-02, 0., 0., 0., 0.,
          0., 0., 0., 0., -3.28086913e-02, -6.65041013e-03,
          9.75393504e-03, 0., 0., 6.65041013e-03, 0., 0., 0.,
          -1.64043456e-02, 0., 0., 0., 0., 0., 0., 0., 0.,
          6.65041013e-03, 0., 0., 0., 0., 0., 3.10352468e-03, 0., 0., 0.,
          0., 0., 0., 0., 0., 0., 0., 0., 0., 0., 0., 0. ]
      - [ 0., 0., 0., 0., 0., 0., -8.89177769e-02, 0., 0., 0.,
          1.43702850e-01, 0., 0., 0., -1.22848064e-01, 0., 0., 0., 0.,
          0., -4.61540446e-02, 0., 0., 0., 0., 0., 1.16187176e-02, 0.,
          0., 0., 0., 0., 0., 0., 0., -3.55877392e-02, 0., 0., 0., 0.,
          0., 0., 0., 0., -3.81703600e-02, -3.55877392e-02, 0., 0., 0.,
          0., 0., 0., -4.53463532e-02, 0., -7.20113739e-02,
          -1.08188547e-01, 0., 0., 0., 0., 0., -5.30458838e-02, 0.,
          2.15199087e-02, -4.04411629e-02, 0., 0., -1.86813325e-02, 0.,
          0., 0., 2.39220783e-01, 0., -1.86813325e-02, 0., 0., 0., 0.,
          0., 2.15199087e-02, 0., 0., 0., 0., -1.94890257e-02, 0., 0.,
          0., 0., 0., 0., 0., 0., 0., -1.19320732e-02, 0., 0., 0., 0.,
          0., 0., 0., 0., 0., 0., -1.36215046e-01, 0., 0., 0., 0., 0.,
          0., 0., 0., 0., 0., 0., 0., 0., 0., -2.66650189e-02, 0.,
          -1.19320732e-02, 0., 0., 0., 0., 1.22182950e-01,
          2.29782492e-01, 0., 0., 0., 0., 0., 2.15199087e-02, 0., 0., 0.,
          0., 0., 0., 0., 0., -3.13476659e-02, 0., 0., 0., 0., 0., 0.,
          0., 5.01715764e-02, 0., 0., 0., 0., -7.46274069e-02, 0., 0.,
          0., 0., -6.19968027e-02, 2.15199087e-02, -1.94890257e-02, 0.,
          1.22182950e-01, 0., 0., -4.32797372e-02, 1.12355188e-01, 0.,
          0., 0., -3.55877392e-02, 0., 0., 0., 0., 1.22182950e-01, 0.,
          0., 0., -3.13476659e-02, 0., -4.04034592e-02, 0., 0., 0., 0.,
          -3.55877392e-02, 0., 0., 0., 0., 0., -6.22527599e-02, 0., 0.,
          0., 0. ]
      - [ -1.87690323e-03, -1.22812716e-02, 0., 0., -2.74419859e-02, 0.,
          -3.07672657e-02, -5.20218443e-03, 0., 0., 4.01989147e-02, 0.,
          0., 0., -7.07908766e-03, 0., -3.45210731e-02, 0., 0., 0.,
          -1.87690323e-03, 0., -5.20218443e-03, 0., 0., 0.,
          1.33405617e-02, -7.07908766e-03, 0., 0., 0., 0., 0., 0., 0.,
          -2.93188877e-02, 0., 0., 0., 0., -5.11301644e-02, 0., 0., 0.,
          -1.87690323e-03, 0., -3.26441713e-02, 0., 0., -6.00861534e-02,
          -3.83220129e-02, -9.43164900e-03, 0., 0., -3.26441713e-02,
          -7.42914602e-02, 0., 0., 0., -2.12372635e-02, -1.87690323e-03,
          -4.18617949e-03, -7.55474623e-03, 5.24546951e-03,
          -1.81968242e-01, 0., 0., -2.74419859e-02, 0., 0., 0.,
          6.99501783e-02, 0., -5.20218443e-03, 0., 0., 0., 0.,
          -7.07908766e-03, -1.22165848e-02, 0., 0., 0., -2.55650822e-02,
          -1.87690323e-03, -2.55650822e-02, 0., -5.30070662e-02, 0., 0.,
          0., 0., 0., 0., 0., 0., -9.43164900e-03, 0., 0.,
          -2.55650822e-02, 0., 0., 0., -1.87690323e-03, 0.,
          -3.02269198e-02, 0., 0., 0., 0., 0., 0., 0., 0.,
          -5.20218443e-03, 0., 0., 0., 0., 0., 0., 0., 0.,
          -1.87690323e-03, 0., -5.20218443e-03, 0., 2.97512617e-02,
          7.82357231e-02, 0., 0., -7.55474623e-03, 0., 0.,
          1.04476539e-02, 0., -1.87690323e-03, 0., -2.55650822e-02, 0.,
          -7.55474623e-03, 0., 0., 0., 0., -7.07908766e-03, 0., 0., 0.,
          -5.20218443e-03, -7.55474623e-03, 2.21965164e-02, 0., 0., 0.,
          0., -1.69863962e-02, 0., 0., 0., -1.27569307e-02,
          3.36856651e-03, 1.04476539e-02, 0., 0., 2.78743580e-02,
          -1.87690323e-03, 0., 0., -5.67096509e-02, 0., 0., 0., 0., 0.,
          0., 0., 0., 1.46417692e-02, 0., 0., 0., 0., 0., 1.19393170e-02,
          -1.04043689e-02, -7.55474623e-03, -7.55474623e-03, 0., 0., 0.,
          0., -7.07908766e-03, 0., 0., 0., -3.75380646e-03, 0., 0., 0. ]
      - [ 0., 0., 0., 0., -6.83658244e-03, 0., 0., 0., 0., 0.,
          1.72730476e-01, 0., 0., 0., 0., 0., 0., 0., 0., 0., 0., 0.,
          -2.08619218e-02, 0., -6.83658244e-03, 0., 5.90288453e-03, 0.,
          0., 0., 0., 0., 0., 0., 0., -4.23619375e-02, 0., 0., 0., 0.,
          0., 0., 0., 0., -2.76985038e-02, 0., 0., 0., 0., 0.,
          -1.36731649e-02, 0., 0., 0., 0., -2.08619218e-02, 0., 0., 0.,
          0., 0., 2.41324119e-02, 0., 2.41324119e-02, -7.42646307e-02,
          0., 0., -6.83658244e-03, 0., 0., 0., 2.80811578e-01, 0.,
          -4.73535508e-02, 0., 0., 0., 0., 0., -4.55758572e-02, 0., 0.,
          0., -4.73535508e-02, 0., 0., 0., -4.05169688e-02, 0., 0., 0.,
          0., 0., 0., 0., 0., -5.41901328e-02, 0., 0., -2.08619218e-02,
          0., 0., 0., 0., 0., -2.24776477e-01, -8.10339376e-02, 0., 0.,
          0., 0., 0., 0., 0., 0., 0., 0., 0., 0., 0., 0., 0., 0., 0., 0.,
          0., 0., 1.48598060e-01, 2.69260138e-01, 0., 0., 0., 0., 0.,
          2.41324119e-02, 0., 0., 0., 0., 0., 0., 0., 0., 0., 0., 0., 0.,
          0., 0., -4.05169688e-02, 0., 3.72464806e-02, 0., 0., 0., 0.,
          -4.23619375e-02, 0., 0., 0., 0., 2.41324119e-02,
          2.41324119e-02, 0., 0., 1.01244517e-01, -4.23619375e-02, 0.,
          0., 8.97154883e-02, 0., 0., -4.23619375e-02, 0., 0., 0., 0.,
          0., 1.48598060e-01, 0., 0., 0., 0., 0., -7.41963387e-02, 0.,
          0., 0., 0., 0., 0., 0., -8.10339376e-02, 0., 0., 0., 0., 0.,
          0., -2.08619218e-02 ]
      - [ 0., -9.76644605e-02, 0., 0., 0., 0., 0., 0., 0.,
          -5.63320564e-03, 5.25187142e-02, 0., -5.63320564e-03,
          -5.63320564e-03, -1.28492899e-02, 0., -1.28492899e-02, 0., 0.,
          -4.53137932e-03, 0., 0., 0., 0., 0., -5.63320564e-03,
          1.59990750e-02, 0., 0., 0., -2.03291699e-02, -2.96419915e-02,
          0., 0., 0., -1.68996155e-02, -2.39785481e-02, 0., 0., 0., 0.,
          0., 0., 0., 0., -5.63320564e-03, -2.55509168e-02, 0., 0., 0.,
          -1.01645850e-02, -5.63320564e-03, 0., 0., -4.07712497e-02,
          -5.27627803e-02, 0., 0., 0., 0., 0., -8.45779479e-03, 0.,
          1.72407851e-02, -1.77783698e-01, -4.53137932e-03,
          -5.63320564e-03, -3.85373607e-02, 0., 0., 0., 9.90630537e-02,
          0., -5.63320564e-03, 0., 0., 0., 0., -3.69649902e-02,
          1.72407851e-02, 0., 0., 0., -5.49605303e-03, -1.73806697e-02,
          -5.63320564e-03, 0., -1.11292582e-02, 0., 0., 0., 0., 0.,
          -1.83453429e-02, 0., 0., -5.36205396e-02, -1.84824951e-02,
          -1.28492899e-02, 0., 0., 0., 0., 0., 0., -1.20040663e-01, 0.,
          0., 0., 0., 0., 0., 0., 0., 0., 0., 0., 0., -3.51380445e-02,
          0., 0., -2.96419915e-02, 0., 0., 0., -1.28492899e-02, 0.,
          4.09111343e-02, 1.27115056e-01, 0., 0., -2.96419915e-02,
          -1.84824951e-02, 0., 1.72407851e-02, 0., 0., 0., 0., 0.,
          -1.01645850e-02, 0., 0., 0., 0., -1.12664113e-02, 0.,
          -2.96419915e-02, 0., 0., 0., 1.85154639e-02, 0., 0., 0., 0.,
          -4.07712497e-02, 0., 0., 0., -1.83453429e-02, -2.49459520e-02,
          1.72407851e-02, -5.63320564e-03, 0., -3.26994131e-03, 0., 0.,
          0., -3.77400778e-02, 0., -1.00274319e-02, 0., 0., 0.,
          -5.49605303e-03, 0., 0., 4.09111343e-02, -2.96419915e-02, 0.,
          0., 0., -5.63320564e-03, -4.10312898e-02, 0., -1.28492899e-02,
          0., 0., 0., -5.49605303e-03, 0., -1.12664113e-02, 0., 0.,
          -5.63320564e-03, 0., 0., 0., 0. ]
      - [ 1.30529525e-02, 8.82702880e-04, 0., 0., 0., 0., 4.31191549e-02,
          2.74833268e-03, -1.33726820e-02, 1.27912983e-02,
          -8.41464382e-04, 0., 0., 3.95076536e-03, -2.42278026e-03, 0.,
          1.85914636e-02, -4.28677611e-02, 0., 0., 0., 0.,
          3.28145362e-02, 0., 0., -4.83644269e-02, -2.86193918e-02, 0.,
          -5.51554449e-02, 0., 2.74833268e-03, 5.73469372e-03,
          1.90136256e-03, 0., 2.74833268e-03, 3.13607119e-02,
          -2.85705309e-02, -8.08857232e-02, 0., 0., 6.69909781e-03, 0.,
          0., 0., 1.92743447e-02, 0., 0., 5.30390162e-03, 0., 0.,
          1.46006290e-02, 0., 2.44435910e-02, 0., 0., -1.41857564e-01,
          0., 2.36773025e-02, 0., -4.83644269e-02, -4.83644269e-02,
          -1.06150769e-01, 0., 1.03046196e-02, -3.63023952e-02,
          1.58431306e-02, -3.58332098e-02, -3.51589955e-02, 0.,
          5.30390162e-03, 0., 5.30515313e-02, 3.55628654e-02,
          8.31231475e-03, 0., 0., 0., 0., 0., 1.17348619e-02, 0., 0.,
          5.30390162e-03, 1.03046196e-02, -7.62871280e-02,
          2.74833268e-03, 0., 2.02798974e-02, 0., -1.33726820e-02, 0.,
          3.10252551e-02, 0., 1.35735914e-01, 3.83333117e-03, 0.,
          2.96981516e-03, -4.64630648e-02, 0., 3.95076536e-03, 0., 0.,
          0., 2.74833268e-03, 0., -9.33544990e-03, 7.78409652e-03, 0.,
          0., 0., 1.58431306e-02, 0., 0., 3.95076536e-03, 0., 0., 0.,
          5.30390162e-03, 0., 0., 5.30390162e-03, -1.06243491e-02, 0.,
          0., 0., 0., 1.30879981e-02, 1.29620098e-02, -4.02117963e-04,
          0., 0., 0., 0., 3.83333117e-03, 3.16862613e-02, 2.74833268e-03,
          3.95076536e-03, 0., 0., 0., 8.05223454e-03, 3.83333117e-03, 0.,
          0., 0., 0., 0., 4.47898358e-03, 1.90136256e-03, 1.98624246e-02,
          1.85914636e-02, -9.20722708e-02, -1.33726820e-02, 0., 0., 0.,
          3.07750776e-02, 0., 0., 0., 2.11470332e-02, 7.78409652e-03,
          3.95076536e-03, 2.74833268e-03, 0., -2.97729634e-02,
          -2.86879651e-02, 9.78288520e-03, 0., -2.53756810e-02,
          4.47898358e-03, -2.46871263e-02, 0., 0., 0., 0., 0.,
          1.90136256e-03, 0., 0., 3.56803015e-02, 0., 0.,
          -1.33726820e-02, -9.06497911e-02, 0., 3.83333117e-03,
          -4.03121933e-02, -1.33726820e-02, -1.06243491e-02, 0., 0.,
          3.04804482e-02, 0., 0., 0., 7.69217592e-03, 0., 8.05223454e-03,
          0. ]
      - [ 8.84480923e-02, 2.82740314e-02, 0., 0., -1.89146399e-02, 0.,
          -9.38547961e-03, 1.24009689e-02, 0., 1.50367245e-01,
          1.23555303e-01, 0., 0., 5.58988331e-03, 7.23966956e-02,
          -3.38104111e-03, 6.85626045e-02, 2.48019379e-02, 0., 0., 0.,
          0., 5.14520444e-02, 0., 0., 0., 3.25010754e-02, 6.18459061e-02,
          1.24009689e-02, 0., 1.24009689e-02, 9.18491110e-02,
          9.18491110e-02, 0., 1.24009689e-02, 1.43394873e-01,
          7.20470846e-02, 2.15771627e-02, 0., 0., 1.79908518e-02, 0., 0.,
          0., -9.92097631e-02, 0., 0., -2.68495753e-02, 0.,
          6.18459061e-02, 4.37237844e-02, -3.76832671e-02,
          1.22934192e-01, 0., -1.02978282e-01, -1.14991270e-01, 0.,
          -2.21509021e-02, 5.33629730e-02, -1.05291292e-01, 0.,
          -6.48797154e-02, 0., 2.07232814e-02, 2.15129815e-02,
          9.71318781e-03, 8.89609605e-02, 2.20134575e-02, 0.,
          1.08336918e-02, 0., 1.73098937e-01, 3.22422050e-02,
          1.55938119e-01, 0., -3.38104111e-03, 0., 0., -2.92003322e-02,
          1.11797666e-02, 0., 0., 1.08336918e-02, 2.76265778e-02,
          3.57783772e-02, 2.10540718e-03, 0., 9.62302908e-02, 0., 0.,
          -5.55571727e-02, 1.35335162e-01, 0., 2.82832354e-01, 0.,
          -1.02955615e-02, 6.85594454e-02, 9.18491110e-02,
          -7.12368786e-02, -1.41591765e-02, 0., 0., 0., 1.24009689e-02,
          0., -9.47675034e-02, 5.58988331e-03, 0., 0., 0.,
          1.30942287e-02, 0., 0., 5.58988331e-03, 0., 0., 0.,
          1.93166249e-02, -3.76832671e-02, -6.10786229e-02,
          -2.69955881e-02, -1.55679034e-02, 0., 0., 0., 0.,
          -5.70244454e-02, 1.38215974e-01, -4.96225543e-02, 0., 0.,
          7.12971762e-02, 0., 3.58684137e-02, -1.42616466e-01,
          1.24009689e-02, 5.58988331e-03, 0., 0., 0., 4.11688685e-02,
          -7.55125433e-02, 0., 0., 0., -5.06750420e-02, 0.,
          8.46409425e-02, 9.18491110e-02, -1.76634528e-02,
          1.15229888e-02, 3.44957411e-02, 0., 0., 0., 0., 1.63256750e-01,
          0., 1.79342069e-02, 0., -4.90428023e-02, 9.38529298e-02,
          5.58988331e-03, 2.08839029e-02, 0., 4.85312976e-02,
          -8.77980201e-04, 1.13408834e-01, -1.29917758e-02,
          2.20751360e-01, -5.04124202e-02, 2.26841476e-02, 0., 0., 0.,
          -6.10786229e-02, 0., 9.18491110e-02, -9.82855260e-02, 0.,
          1.22805871e-01, 0., 0., 1.20445797e-02, 6.40524104e-02,
          -3.76832671e-02, -6.10786229e-02, 2.32346598e-02, 0.,
          1.24009689e-02, -1.29917758e-02, 0., 7.36196339e-02, 0., 0.,
          0., 8.03330541e-02, -3.38104111e-03, 2.32346598e-02, 0. ]
      - [ 4.01755013e-02, 7.14658126e-02, 0., 0., 0., 0., 7.31008574e-02,
          0., 0., 5.24495691e-02, 6.65870458e-02, 0., 0., 3.75547111e-02,
          9.50161591e-02, 0., 1.84225943e-02, -1.52995167e-02, 0., 0.,
          -7.76050519e-03, 0., 7.50242397e-02, 0., 0., 0.,
          -2.48702597e-02, 6.26439555e-03, -3.79032735e-03, 0., 0.,
          6.48663417e-02, 6.48663417e-02, 0., 0., 1.14729665e-01,
          -6.02433421e-02, 1.21581983e-02, 0., 0., 3.75547111e-02, 0.,
          0., 0., -8.75285193e-02, 0., -1.34988781e-02, 2.25678533e-02,
          0., 6.26439555e-03, -1.46462175e-03, 0., 1.10788926e-01, 0.,
          -1.82853997e-01, -1.51234508e-01, 0., 1.86115876e-02,
          6.26439555e-03, 0., 0., 4.38191071e-02, 0., 7.10016638e-02,
          -6.78776801e-02, 1.21581983e-02, 6.03226498e-02,
          4.02878523e-02, 0., 2.25678533e-02, 0., 1.20791972e-01,
          4.29800786e-02, 6.25644699e-02, 0., 0., 0., 0.,
          -1.52995167e-02, 3.50092053e-02, 0., 0., 2.25678533e-02,
          5.24563864e-02, 4.60693017e-02, 0., 0., 9.57822129e-02, 0., 0.,
          6.26439555e-03, 1.14579253e-01, 0., 2.98820257e-01, 0., 0.,
          7.49482363e-02, 6.48663417e-02, 0., 5.60999922e-02, 0., 0., 0.,
          0., 0., 1.16246305e-02, 3.75547111e-02, 0., 0., 0.,
          1.21581983e-02, -1.52995167e-02, 0., 3.75547111e-02,
          -2.12593824e-02, 0., 0., 2.25678533e-02, 0., 0.,
          7.26833614e-03, 3.70905623e-02, 0., 0., 0., 0., 6.01225644e-02,
          1.02621138e-01, -8.23793486e-02, 0., -1.52995167e-02,
          2.48096772e-02, -1.34988781e-02, 3.70905623e-02,
          2.43163966e-02, 0., 3.75547111e-02, 0., 0., 0., 4.11131345e-02,
          0., 0., 0., 0., -7.76050519e-03, 0., 2.42559183e-02,
          6.48663417e-02, 3.75547111e-02, 3.07034794e-02, 5.12875281e-02,
          -7.76050519e-03, -1.52995167e-02, 0., 0., 1.20992526e-01, 0.,
          3.24576395e-03, 0., -6.59735873e-02, -5.78823313e-02,
          3.75547111e-02, 0., 0., 3.07034794e-02, 3.07034794e-02,
          7.88679272e-02, 0., 1.48690447e-01, -5.66804446e-02,
          3.12302262e-03, 0., 0., 0., 0., 0., 6.48663417e-02, 0., 0.,
          6.63697422e-02, 0., 0., -7.23448209e-03, -1.84837431e-01, 0.,
          0., -4.92169347e-04, 0., 0., 0., -3.79032735e-03,
          1.00949712e-01, 0., 0., 0., 5.97263835e-02, 0., 2.25678533e-02,
          0. ]
      - [ 7.93989971e-02, -1.47812501e-01, 0., 0., 0., 0.,
          1.25712588e-01, 5.95560763e-03, 0., 1.88677043e-01,
          1.62304908e-01, 0., 0., -1.14275210e-01, 1.15140788e-02,
          -3.40001211e-02, 3.26478481e-02, 1.19112153e-02, 0., 0., 0.,
          0., 5.10220714e-02, -4.37445864e-02, 0., 0., -3.40001211e-02,
          9.70262438e-02, -1.56328622e-02, 1.48305353e-02,
          2.07861438e-02, 6.52986765e-02, 5.04681394e-02, 0.,
          5.95560763e-03, 6.54896870e-02, 5.80756851e-02, 6.63446486e-02,
          0., 0., 2.90625989e-02, 0., 0., 0., -2.97291968e-02, 0.,
          -1.26941189e-01, -6.34705946e-02, 0., 1.26687318e-01,
          1.56506840e-02, 1.48305353e-02, 7.26385713e-02, 8.27645510e-03,
          2.88663385e-03, 4.36854362e-02, 8.27645510e-03, 3.98589857e-02,
          3.35844047e-02, 2.31069904e-02, 0., 7.95790330e-02,
          -2.15884708e-02, 4.56322506e-02, 1.43938810e-01,
          -6.66159466e-02, 8.81663039e-02, -1.35863677e-01,
          1.48305353e-02, -3.40001211e-02, 0., -1.43963903e-01,
          -4.75181900e-02, 1.44405395e-01, 0., 0., 0., 0.,
          -1.49041727e-01, 0., 0., 0., 1.48305353e-02, 8.74549802e-03,
          -1.39508648e-02, -5.75149879e-02, 0., 1.08971700e-01, 0., 0.,
          2.53079496e-02, 9.34247151e-02, 0., 7.62337521e-02, 0., 0.,
          7.42684454e-02, 2.88796667e-02, 0., -3.81907709e-02, 0., 0.,
          0., 2.07861438e-02, 0., -1.36575624e-01, 8.27645510e-03,
          1.48305353e-02, 0., 0., 1.38429005e-03, -1.57289430e-01,
          -3.40001211e-02, 0., 0., 0., -3.40001211e-02, 7.17182904e-02,
          -5.08046187e-02, 0., 0., -2.22712439e-02, 0., 0., 0., 0., 0.,
          -3.82445357e-03, -8.09178054e-02, 0., 0., 2.81945840e-02, 0.,
          5.77326771e-03, 3.85127887e-02, 3.56166773e-02, 0.,
          1.48305353e-02, 0., 0., 2.08430598e-03, 0., 0., 0., 0.,
          -6.34705946e-02, 0., 8.48778710e-02, 5.04681394e-02,
          4.55480767e-03, 1.02265319e-02, 1.41518757e-01,
          -9.74446721e-03, 0., 0., 0., 1.80574536e-01, 0.,
          1.77171696e-02, 0., 1.62148252e-02, 1.22991107e-01,
          8.27645510e-03, 8.59503523e-02, 0., 9.67753604e-02,
          4.27092379e-03, -3.81919816e-02, -6.34705946e-02,
          1.52699322e-01, 1.41518757e-01, -1.09456340e-02, 0.,
          -5.08046187e-02, 0., 0., 0., 6.52986765e-02, 0., 0.,
          7.40091726e-02, 0., 0., -5.51771186e-02, 8.93787146e-02,
          -9.74446721e-03, 0., 2.07861438e-02, 0., -1.32139763e-02,
          -1.49012968e-01, -5.08046187e-02, -5.68224676e-02, 0., 0., 0.,
          1.04233310e-01, -1.57289430e-01, 3.56166773e-02, 0. ]
      - [ 4.29010158e-03, -2.11025234e-02, 0., 0., -5.83257005e-02, 0.,
          1.88315995e-02, 2.45838258e-02, 0., 7.50583708e-02,
          8.82198736e-02, 0., 0., 0., -1.22487538e-01, 0.,
          -4.38586343e-03, 4.91676517e-02, -4.16876860e-02,
          -1.66380163e-02, 0., 0., -2.50216406e-02, 0., -4.16876860e-02,
          0., -2.88370252e-02, 1.27179958e-02, -3.59341204e-02,
          -2.97784880e-02, 3.64930220e-02, 2.73465998e-02,
          1.54374028e-02, -1.66380163e-02, 2.45838258e-02,
          8.73654485e-02, 2.46271919e-02, 1.19091962e-02, 0., 0.,
          3.64930220e-02, 0., 0., 0., -3.36976051e-02, -6.05179481e-02,
          -1.66380163e-02, 1.47966901e-03, 0., -2.17893124e-02,
          3.10942344e-02, 1.19091962e-02, 1.02427397e-02, 0.,
          6.51040953e-03, 1.12663545e-02, 0., -3.30117196e-02,
          1.27179958e-02, -2.97784880e-02, -3.32760327e-02,
          -2.05580369e-02, 0., -6.16785847e-02, 7.17167705e-02,
          -6.05179481e-02, 6.35926798e-02, 1.47966901e-03,
          1.19091962e-02, 1.47966901e-03, 0., -4.76565287e-02,
          -2.35862415e-02, 1.50699047e-02, 0., 0., 0., 0., 0.,
          -3.32760327e-02, 0., 0., 1.33888656e-02, 1.51863750e-02,
          8.67596548e-03, 2.45838258e-02, 0., 8.16620067e-02, 0., 0.,
          -4.56077047e-02, 8.84234458e-02, -4.16876860e-02,
          1.45428732e-01, 0., 0., 2.49071494e-02, 1.54374028e-02, 0.,
          6.51040953e-03, 0., 0., 0., 3.64930220e-02, 0.,
          -1.67717397e-01, 0., 1.19091962e-02, 0., 0., 0., 0., 0., 0.,
          0., 0., 0., 1.47966901e-03, 0., -5.83257005e-02,
          -1.51583469e-02, -5.39970882e-02, 0., 0., 0., -4.16876860e-02,
          1.47966901e-03, 3.11339069e-02, -1.51583469e-02, 0.,
          -1.66380163e-02, 1.92284063e-02, 0., 1.30208191e-02,
          -4.86087501e-02, 4.84022163e-02, 0., 1.19091962e-02, 0.,
          -1.66380163e-02, 2.79541546e-03, -1.33289412e-01, 0., 0., 0.,
          0., -1.66380163e-02, -4.15850105e-03, 1.54374028e-02,
          -1.21224229e-03, -2.94237118e-02, 5.17268479e-02, 0., 0., 0.,
          0., -1.00765035e-01, 0., 1.84196066e-02, 0., -1.98871661e-02,
          3.11376024e-02, 0., 2.45838258e-02, 0., 4.30034325e-02,
          6.51040953e-03, 4.55192626e-02, 0., 6.16425499e-02,
          5.02471812e-02, 8.67596548e-03, 0., 0., 0., 0., 0.,
          2.73465998e-02, 0., 0., 5.39678633e-02, 0., -5.83257005e-02,
          -5.25287688e-02, 1.73519310e-02, 0., 0., -3.71499406e-03,
          -1.66380163e-02, 1.98550057e-02, 0., 0., -6.88597038e-02, 0.,
          0., 0., -2.81079654e-02, 0., 4.98818867e-02, 0. ]
      - [ 1.39308386e-02, -3.04505955e-02, 0., 0., 0., 0.,
          3.47654559e-02, 0., 0., 0., 6.90377876e-03, 0., 0.,
          2.71219877e-03, 1.66430380e-02, 0., 0., 0., 0., 0., 0., 0.,
          2.08346173e-02, 0., 0., 0., 2.07113363e-02, 0., 0., 0.,
          -2.35468168e-02, 0., 0., 0., 0., -1.66430380e-02,
          2.71219877e-03, 0., 0., 0., 2.71219877e-03, 0., 0., 0.,
          6.90377876e-03, 0., 0., 6.90377876e-03, 0., 0., 8.13659653e-03,
          -7.06404522e-02, 2.71219877e-03, 0., 0., -3.31627950e-02, 0.,
          1.39308386e-02, 0., -2.35468168e-02, -2.35468168e-02,
          -2.08346173e-02, 0., 1.39308386e-02, -1.20446280e-01, 0.,
          6.90377876e-03, 1.23281758e-02, 0., 6.90377876e-03, 0.,
          1.39308386e-02, 2.08346173e-02, 0., 0., 0., 0., 0.,
          -2.35468168e-02, 5.42439753e-03, 0., 0., 6.90377876e-03,
          1.39308386e-02, -9.61597729e-03, 0., 0., 1.66430380e-02, 0.,
          0., 0., 2.71219877e-03, 0., 5.41206934e-02, 0., 0.,
          1.38075575e-02, 0., -2.35468168e-02, 2.71219877e-03, 0., 0.,
          0., 0., 0., 1.60266284e-03, 2.71219877e-03, 0., 0., 0., 0., 0.,
          0., 2.71219877e-03, 0., 0., 0., 6.90377876e-03, 0., 0.,
          6.90377876e-03, 0., 0., 0., 0., 0., 9.61597729e-03, 0.,
          -4.01898548e-02, 0., 0., 0., 0., 0., 0., 0., 2.71219877e-03,
          0., 0., 0., 6.90377876e-03, 0., 0., 0., 0., -2.35468168e-02,
          0., -4.70936336e-02, 0., 2.71219877e-03, 0., -6.37366697e-02,
          0., 0., 0., 0., 2.07113363e-02, 0., 0., 0., -4.01898548e-02,
          -2.08346173e-02, 2.71219877e-03, 0., 0., 0., 0.,
          6.90377876e-03, 0., -3.31627950e-02, 0., 1.39308386e-02, 0.,
          0., 0., 0., 0., 0., 0., 0., 2.35468168e-02, 0., 0., 0.,
          -1.65197551e-02, 0., 0., 6.90377876e-03, 0., 0., 0., 0.,
          2.77383961e-02, 0., 0., 0., 5.42439753e-03, 0., 6.90377876e-03,
          0. ]
      - [ 5.93426526e-02, 5.64713366e-02, 0., 0., 0., 0.,
          -3.59573625e-02, 7.43323239e-03, 0., 1.31734654e-01,
          8.41895714e-02, 0., 0., 1.54509293e-02, -4.27199379e-02, 0.,
          2.56580822e-02, 1.48664648e-02, 0., 0., -1.17324721e-02, 0.,
          4.50224988e-02, 0., 0., 0., -4.85621579e-02, 1.64751951e-02,
          7.43323239e-03, 0., 7.43323239e-03, 9.72291231e-02,
          9.72291231e-02, 0., 7.43323239e-03, 1.31467879e-01,
          3.36757787e-02, 1.29220216e-02, 0., 0., 2.28841621e-02, 0., 0.,
          0., -5.55961533e-03, -1.00119419e-01, 0., 0., 0.,
          1.64751951e-02, 5.77881075e-02, 0., 9.88191143e-02, 0.,
          -3.63603979e-02, -1.30272061e-01, 0., 4.10204083e-02,
          1.08890124e-02, 0., 0., -3.15176658e-02, 0., 4.90245856e-02,
          8.62433240e-02, 7.33583886e-03, 7.33005628e-02,
          -2.26713140e-02, 0., 0., 0., 1.43323645e-01, 4.84536402e-02,
          6.38608858e-02, 0., 0., 0., 0., 5.58618316e-03, 3.09018586e-02,
          0., 0., 0., 4.50224988e-02, 4.83562462e-02, 7.43323239e-03, 0.,
          9.71818417e-02, 0., 0., 1.08890124e-02, 1.34882361e-01, 0.,
          2.87929773e-01, -4.85621579e-02, 0., 1.06817402e-01,
          9.72291231e-02, 0., 1.94530189e-02, 0., 0., 0., 7.43323239e-03,
          0., -5.25465421e-02, 1.54509293e-02, 0., 0., 0.,
          7.33583886e-03, 0., 0., 1.54509293e-02, 0., 0., 0.,
          5.58618316e-03, 0., 0., -1.17324721e-02, 1.54374111e-02,
          -4.85621579e-02, 0., 0., 0., 1.54509293e-02, 1.70529693e-01,
          0., 0., 0., 1.48911010e-02, 0., 8.00417922e-03, 2.02578604e-02,
          -2.92423964e-02, 1.54509293e-02, 0., 0., 0., 1.14353215e-02,
          0., 0., -7.75025561e-02, 0., 0., 0., 6.58673272e-02,
          9.72291231e-02, 3.77506278e-02, 1.87711604e-02, 3.63938510e-02,
          0., 0., 0., 0., 2.75159143e-02, 0., 4.00208961e-03, 0.,
          7.33583886e-03, -4.01316211e-03, 1.54509293e-02,
          1.30194155e-02, 0., 2.43573431e-02, 1.13379285e-02,
          6.98694140e-02, -1.26064718e-01, 1.39536321e-01,
          7.67563432e-02, 4.10204083e-02, 0., -6.34437874e-02, 0., 0.,
          0., 9.72291231e-02, 0., 0., 7.87956715e-02, 0.,
          -7.75025561e-02, -2.02004332e-02, -1.87778890e-01, 0., 0.,
          7.43323239e-03, 0., -5.60105555e-02, 0., 0., 1.53140634e-01,
          0., 0., -7.51762614e-02, 2.26830561e-02, 0., 7.43323239e-03,
          0. ]
      - [ 3.09409536e-02, 2.75456887e-02, 0., 0., -4.65989895e-02, 0.,
          1.86900515e-02, -1.20275905e-02, 0., 0., 1.31457830e-02, 0.,
          0., 2.06599161e-02, 4.78531159e-02, 0., -5.52496463e-02, 0.,
          0., 0., -7.62980606e-04, 0., 3.28221284e-02, 0., 0., 0.,
          1.72229353e-02, -1.27905719e-02, 0., 0., 0., 1.11914426e-02,
          1.11914426e-02, 0., 0., -1.88848283e-02, 2.47998331e-02,
          4.13991744e-03, 0., 0., -7.10121021e-02, 0., 0., 0.,
          1.65227205e-02, 0., -5.86265810e-02, 1.31457830e-02, 0.,
          -1.05225570e-01, -1.80982649e-02, -2.29773931e-02,
          3.59912775e-02, 0., -5.86265810e-02, -1.14125356e-01, 0.,
          3.17039341e-02, 0., -3.83717157e-02, -7.62980606e-04,
          -1.43450685e-02, -2.22144127e-02, 1.96763445e-02,
          -1.58042237e-01, 4.13991744e-03, 1.31457830e-02,
          7.86662567e-03, 0., 1.31457830e-02, 0., 3.99837717e-02,
          4.48497199e-02, -1.20275905e-02, 0., 0., 0., 0.,
          -1.27905719e-02, -2.53234077e-02, 0., 0., 1.31457830e-02,
          -1.41320750e-02, 3.50808725e-02, -4.58360091e-02, 0.,
          -3.17913145e-02, 0., 0., 0., 3.59912775e-02, 0.,
          1.57857254e-01, 0., 0., 1.45056155e-02, 1.11914426e-02, 0.,
          -2.51760930e-02, 0., 0., 0., -7.62980606e-04, 0.,
          1.79927517e-02, 2.06599161e-02, 0., 0., 0., 4.13991744e-03, 0.,
          0., 2.06599161e-02, -1.20275905e-02, 0., 0., 1.31457830e-02,
          0., 0., 1.31457830e-02, 0., 0., -7.62980606e-04, 0.,
          -1.20275905e-02, 3.38056982e-02, 1.11914426e-02,
          1.16198221e-02, 0., 0., -2.22144127e-02, 0., 0.,
          8.27983487e-03, 0., 1.98969357e-02, 0., -4.58360091e-02, 0.,
          -9.06863064e-03, 0., 0., 0., 0., -1.27905719e-02, 0., 0.,
          1.11914426e-02, 8.63232557e-03, -1.80744957e-02,
          -9.06863064e-03, 0., 0., 0., 0., 1.66284274e-02, 0., 0., 0.,
          -1.69563033e-02, 7.86934514e-03, 2.06599161e-02, 0., 0.,
          3.37693701e-03, 3.37693701e-03, 1.31457830e-02, 0.,
          -1.50414661e-01, 0., 3.17039341e-02, 0., 0., 0., 0., 0.,
          1.11914426e-02, -4.44288254e-02, 0., 6.55096322e-02, 0., 0.,
          0., -6.18684338e-03, -2.40551811e-02, -2.22144127e-02,
          -9.06863064e-03, 0., 0., 0., 0., 5.63963726e-02, 0., 0., 0.,
          3.97938713e-02, 0., 1.31457830e-02, 0. ]
      - [ 6.26948029e-02, 8.41708630e-02, 0., 0., -3.21271345e-02, 0.,
          8.51805806e-02, 5.58132026e-03, -2.16944497e-02,
          1.54762104e-01, 1.07737578e-01, 0., 0., 2.70573813e-02,
          4.73114960e-02, 0., 2.68155131e-02, 1.11626405e-02, 0., 0., 0.,
          0., 2.73146555e-02, 0., 0., 0., -7.82593340e-02, 0.,
          5.58132026e-03, -3.21271345e-02, 5.58132026e-03,
          9.85508114e-02, 9.85508114e-02, 0., 5.58132026e-03,
          7.21655712e-02, 4.82915752e-02, -4.60256269e-04, 0., 0.,
          3.26387025e-02, 0., 0., 0., -7.28189051e-02, 0., 0.,
          2.47752015e-02, 0., 0., 1.15068883e-01, 0., 1.52423710e-01, 0.,
          2.83154156e-02, -4.04806249e-02, 0., 5.71134835e-02, 0.,
          -5.38215861e-02, 0., 2.70573813e-02, 0., 8.16171765e-02,
          -6.70310855e-02, 2.12341920e-02, 1.07737578e-01,
          5.71955182e-02, 0., 2.47752015e-02, 0., 1.38452306e-01,
          5.53428680e-02, 1.16198824e-03, -3.21271345e-02, 0., 0., 0.,
          0., -7.67757222e-02, 0., 0., 2.47752015e-02, 1.30215539e-02,
          5.66532277e-02, 5.58132026e-03, 0., 6.53945431e-02, 0., 0., 0.,
          1.58005029e-01, 0., 3.98395270e-01, 0., 0., 3.97550166e-02,
          9.85508114e-02, -2.16944497e-02, -2.75166482e-02, 0., 0., 0.,
          5.58132026e-03, 0., -5.82629368e-02, -1.17757313e-01, 0., 0.,
          0., 2.12341920e-02, 0., 0., 5.36293304e-03, 0., 0., 0.,
          2.47752015e-02, 0., 0., 2.47752015e-02, 3.00850160e-02, 0., 0.,
          0., 0., 5.18325828e-02, 1.27691597e-01, 2.47752015e-02, 0., 0.,
          2.83154156e-02, 0., 5.66308312e-02, 4.24683839e-02,
          5.58132026e-03, 2.70573813e-02, 0., 0., 0., 5.86719364e-02,
          -2.16944497e-02, 0., 0., 0., 0., 0., 7.73810521e-02,
          9.85508114e-02, -6.07331395e-02, 5.51309288e-02,
          -5.04286811e-02, 0., 0., 0., 0., 2.23499119e-01, 0.,
          2.83154156e-02, 0., 2.62049655e-03, 3.36783491e-02,
          2.70573813e-02, 5.58132026e-03, 0., -4.94035520e-02,
          -8.13408792e-02, 1.30471677e-01, 0., 1.39262959e-01,
          7.73810521e-02, 5.71134835e-02, -1.30890489e-01, 0., 0., 0.,
          0., 9.85508114e-02, 0., -2.16944497e-02, 1.42842799e-01, 0.,
          0., 0., -1.40701637e-01, 0., 0., 3.03565226e-02, 0.,
          5.58132026e-03, -2.16944497e-02, 0., 5.65882884e-02, 0., 0.,
          0., 1.00213788e-01, 0., 3.03565226e-02, -8.28894451e-02 ]
      - [ 5.09479046e-02, -1.04894906e-01, 0., 0., 0., 0.,
          1.16954409e-01, 3.88407439e-04, 0., 2.65139192e-02,
          2.44590566e-02, 0., -1.66751631e-02, 3.61033226e-03,
          5.81820346e-02, -7.14134949e-04, -1.06166210e-02,
          7.76814879e-04, 0., -1.39197540e-02, 0., 0., 6.80528432e-02,
          0., 0., -1.50172347e-02, 2.47998405e-02, 0., 3.88407439e-04,
          0., -5.91434985e-02, -4.35793884e-02, 2.35533994e-02, 0.,
          -1.26952014e-03, 1.75895803e-02, -3.18225101e-02, 0., 0., 0.,
          1.90159734e-02, 0., 0., 0., 1.74933430e-02, -1.66751631e-02,
          -9.61491689e-02, 1.74933430e-02, 0., 0., 2.40182634e-02,
          -1.66751631e-02, 4.25693728e-02, 0., -1.04919910e-01,
          -4.70971800e-02, 0., 4.98453602e-02, 0., 0., -7.14134949e-04,
          -4.81075933e-03, 0., 5.05594984e-02, -1.77647859e-01,
          -1.39197540e-02, 2.44590566e-02, -4.60813344e-02, 0.,
          1.74933430e-02, 0., 7.25424439e-02, 6.84412494e-02,
          6.57730550e-03, 0., -7.14134949e-04, 0., 0., -5.70183098e-02,
          3.58268656e-02, 0., 0., 1.74933430e-02, 2.63613407e-02,
          2.39767879e-02, -1.46288276e-02, 0., 3.05188298e-02, 0., 0.,
          0., 4.29577790e-02, 0., 1.94246590e-01, 0., 0.,
          -5.97569123e-02, -5.78471879e-03, -1.10050282e-02,
          1.86275672e-02, 0., 0., 0., 3.88407439e-04, 0.,
          -7.05318674e-02, 1.86275672e-02, 0., 0., 0., 0., 0., 0.,
          1.86275672e-02, 0., 0., -1.65792753e-03, 1.74933430e-02,
          -8.99026766e-02, 0., 1.74933430e-02, -6.84023052e-02, 0., 0.,
          0., -1.10050282e-02, 3.61209102e-02, 4.55363467e-02,
          1.74933430e-02, 0., 0., -6.71327859e-02, -2.60222629e-02, 0.,
          0., 3.88407439e-04, 1.86275672e-02, 0., -7.14134949e-04, 0.,
          -1.34272994e-02, -7.14134949e-04, 0., 0., 0., -3.24065313e-02,
          0., -4.55382466e-02, 2.35533994e-02, 1.81348622e-02,
          3.88407439e-04, -3.53654176e-02, 0., 0., 0., 0.,
          1.66498683e-02, 0., 0., 0., -1.93677675e-02, -7.16921464e-02,
          1.86275672e-02, -1.46288276e-02, 0., -4.93018404e-02, 0.,
          3.83737497e-02, 0., -1.20973557e-01, 2.15945411e-02,
          1.38698565e-02, 0., 0., 0., -2.27698870e-02, 0.,
          2.35533994e-02, -2.37206253e-03, -6.71327859e-02,
          8.70688185e-02, 0., 0., -1.57313701e-02, -9.96722057e-02, 0.,
          -1.17191635e-02, 1.78817511e-02, -1.65792753e-03,
          3.88407439e-04, -2.27698870e-02, 0., 7.90651143e-02, 0., 0.,
          -1.66751631e-02, 3.80319469e-02, 0., 1.78817511e-02, 0. ]
      - [ 1.75093720e-03, 3.50187439e-03, 0., 0., 0., 0.,
          -4.30152146e-03, 0., 1.75093720e-03, 0., 1.75093720e-03, 0.,
          0., 0., 5.55092618e-02, -1.25141125e-02, -3.81058175e-03,
          5.37583232e-02, 0., 0., 0., 0., 0., 0., 0., 5.37583232e-02,
          5.37583232e-02, 0., 5.15605547e-02, 0., 0., 0., 0.,
          -3.94870527e-03, 0., -4.42239363e-03, 5.37583232e-02,
          1.07516646e-01, 0., 0., 0., 0., 0., 0., 1.75093720e-03, 0., 0.,
          0., 0., 0., -1.25141125e-02, 0., 0., 0., -8.84478725e-03,
          7.44204298e-02, 0., -3.94870527e-03, 0., 4.93359305e-02,
          5.37583232e-02, 8.45065787e-02, 0., 1.75093720e-03,
          7.80756921e-02, -1.25141125e-02, 4.98096198e-02,
          5.37583232e-02, 0., 0., 0., 1.75093720e-03, -2.81708110e-02,
          0., 0., -1.25141125e-02, 0., 0., 0., 0., 0., 0., 0.,
          -4.30152146e-03, 1.11018524e-01, -3.81058175e-03, 0.,
          5.37583232e-02, 0., 1.75093720e-03, -2.47610081e-02, 0., 0.,
          -4.42239363e-03, 0., -3.81058175e-03, -2.05964455e-03,
          5.37583232e-02, -2.47610081e-02, 0., 0., 0., 0., 0., 0.,
          -1.60332378e-02, 0., 0., 0., 0., 0., 0., 0., 0., 0., 0., 0.,
          0., 0., -3.94870527e-03, -3.94870527e-03, -1.51855685e-02, 0.,
          0., 0., 0., -1.04748523e-02, -6.05245866e-03, -2.67145643e-03,
          0., 0., 0., 0., 0., -3.81058175e-03, 0., 0., 0., 0., 0., 0.,
          0., 0., 0., 0., -1.00011639e-02, 0., 0., 0., -8.37109890e-03,
          -6.05245866e-03, 3.86559889e-02, 1.75093720e-03, 0., 0., 0.,
          -3.72751206e-02, 0., 0., 0., -1.85665712e-02, 0., 0., 0., 0.,
          4.12442125e-02, 4.77058664e-02, 0., -6.05245866e-03,
          5.72601967e-02, 0., 5.37583232e-02, 0., 0., 0., 0., 0., 0.,
          -4.42239363e-03, 0., -3.94870527e-03, 0., 0., -9.68080852e-03,
          1.18022271e-01, 0., 0., 5.37583232e-02, 1.75093720e-03,
          1.75093720e-03, -6.05245866e-03, 0., -1.45737566e-02, 0., 0.,
          0., 1.75093720e-03, -1.25141125e-02, 0., 0. ]
      - [ 2.13012937e-02, 4.26025875e-02, 0., 0., 0., 0.,
          -2.85862274e-02, 0., 2.13012937e-02, -1.90445185e-02,
          2.13012937e-02, 0., 0., 0., 1.64569691e-02, 0., 0.,
          5.15345223e-02, 0., 0., -1.08448798e-02, 0., 0., 0., 0.,
          5.97341619e-02, 4.97889593e-02, 0., 3.81467268e-02, 0., 0., 0.,
          0., 0., 0., -1.08617358e-02, 3.58861908e-02, 1.19468324e-01,
          0., 0., 0., 0., 0., 0., 1.30608194e-02, 0., -6.99879276e-03,
          0., 0., 0., -1.81856770e-02, 0., -4.28887270e-02, 0., 0.,
          1.27381817e-01, 0., -8.19963962e-03, 0., 5.97341619e-02,
          5.97341619e-02, 1.40769616e-01, 0., 2.13012937e-02,
          2.09073406e-02, 0., 5.97341619e-02, 3.76438187e-03, 0., 0., 0.,
          2.13012937e-02, -6.99879276e-03, 0., 0., 0., 0., 0.,
          -8.19963962e-03, -6.08226052e-03, 0., 0., 0., 2.13012937e-02,
          1.62070915e-01, 0., 0., 5.97341619e-02, 0., 2.13012937e-02, 0.,
          0., 0., 0., 0., 0., 8.22023954e-03, 5.97341619e-02, 0., 0., 0.,
          0., 0., 0., 0., 4.87944670e-02, 0., 0., 0., 0., 0.,
          -8.19963962e-03, 0., 0., -1.78436711e-02, 0., 0., 0., 0., 0.,
          -8.19963962e-03, 2.13012937e-02, 0., 0., 0., 0., 0., 0.,
          1.14171933e-02, 0., -8.19963962e-03, 0., -6.99879276e-03, 0.,
          0., 0., 0., 0., 0., 0., 0., 0., 0., 0., 0., -1.08448798e-02,
          0., -6.99879276e-03, 0., 0., 0., 1.36739701e-01,
          1.04564140e-02, -8.19963962e-03, 0., 0., -6.99879276e-03, 0.,
          -8.19963962e-03, 0., 0., -1.59255266e-02, 0., 0., 0.,
          5.97341619e-02, 5.97341619e-02, 0., 0., 1.02336749e-01, 0.,
          6.89636974e-04, 0., 0., 0., 0., 0., 0., 0., 0.,
          -3.86294327e-03, 0., 0., 1.43025005e-02, 3.00067347e-02, 0.,
          0., 4.06896435e-02, 2.13012937e-02, 2.13012937e-02, 0.,
          -4.28887270e-02, 9.23871063e-03, 0., 0., 0., 1.52801368e-02,
          0., 0., 0. ]
      - [ 0., -1.34491008e-02, 0., 0., 0., 0., -5.24436031e-03, 0., 0.,
          -5.24436031e-03, 0., 0., 0., -2.10515503e-02, 3.83174717e-02,
          -5.24436031e-03, 0., 4.35618311e-02, 0., 0., 0., 0., 0.,
          -5.24436031e-03, 0., 4.35618311e-02, 3.83174717e-02, 0.,
          3.45006511e-02, 0., 0., 0., 0., 0., 0., -1.86934620e-02,
          4.35618311e-02, 7.80624822e-02, 0., 0., 0., 0., 0., 0.,
          -5.24436031e-03, 0., -3.92681174e-02, -1.96340587e-02, 0., 0.,
          0., 0., 0., 0., 0., 1.05807073e-01, 0., 0., 0., 4.35618311e-02,
          4.35618311e-02, 8.18793029e-02, -9.06118099e-03, 0.,
          8.18793029e-02, -1.04887206e-02, 3.83174717e-02,
          1.34491008e-02, 0., -5.24436031e-03, 0., -5.69696911e-02,
          -2.83498154e-03, 0., 0., 0., 0., 0., -2.78388001e-02, 0., 0.,
          0., 0., -5.24436031e-03, 6.74896017e-02, -1.96340587e-02, 0.,
          4.29371372e-03, 0., 0., 0., 0., 0., -2.60317139e-02, 0., 0.,
          -1.41749077e-03, 3.45006511e-02, 0., -9.06118099e-03, 0., 0.,
          0., 0., 0., -7.29451925e-02, 0., 0., 0., 0., 0.,
          -8.20474047e-03, -5.24436031e-03, 0., 0., 0., -5.24436031e-03,
          0., -1.41749077e-03, 0., 0., -5.24436031e-03, 0., 0., 0., 0.,
          0., -1.34491008e-02, -2.48784181e-02, 0., 0., 0., 0., 0.,
          -1.41749077e-03, 0., 0., 0., 0., 0., -9.06118099e-03, 0., 0.,
          0., 0., -1.96340587e-02, 0., -9.06118099e-03, 0.,
          -9.06118099e-03, 0., 4.35618311e-02, 0., 0., 0., 0.,
          -1.41749077e-03, 0., 0., 0., 0., -1.96340587e-02, 0., 0., 0.,
          4.35618311e-02, 4.35618311e-02, -8.20474047e-03,
          -1.96340587e-02, 4.29371372e-03, 0., 4.21443395e-02, 0.,
          -1.41749077e-03, 0., 0., 0., 0., 0., 0., 0., 0., 0.,
          -8.20474047e-03, 8.71236622e-02, 0., 0., 4.35618311e-02, 0.,
          -5.24436031e-03, -8.20474047e-03, -1.41749077e-03,
          -4.45124768e-02, 0., 0., 0., 0., -8.20474047e-03, 0., 0. ]
      - [ -8.02710932e-03, -7.45211635e-03, 0., 0., -1.75765511e-02, 0.,
          5.74992970e-04, 0., 5.74992970e-04, 0., 5.74992970e-04, 0., 0.,
          0., -7.19440775e-03, 0., -8.60210229e-03, 3.27980667e-02,
          -8.60210229e-03, -8.97444878e-03, 0., 0., -8.60210229e-03, 0.,
          -8.60210229e-03, 3.27980667e-02, 1.48491710e-02, 0.,
          1.75765511e-02, -8.60210229e-03, 0., 0., 0., -8.97444878e-03,
          0., -8.97444878e-03, 3.27980667e-02, 6.55961335e-02, 0., 0.,
          0., 0., 0., 0., -8.02710932e-03, -1.57965105e-02,
          -8.97444878e-03, 0., 0., -1.75765511e-02, 0., 0.,
          -8.60210229e-03, 0., 0., 9.11447331e-02, 0., -8.60210229e-03,
          0., 2.41959654e-02, 1.48491710e-02, 4.82222326e-02, 0.,
          -1.66292116e-02, 6.96210861e-02, -1.57965105e-02,
          3.27980667e-02, 3.27980667e-02, 0., 0., 0., -3.99924777e-02,
          -1.75765511e-02, -8.60210229e-03, 0., 0., 0., 0., 0.,
          -1.79488976e-02, 0., 0., 0., 5.74992970e-04, 6.67461231e-02,
          0., 0., 3.27980667e-02, 0., 5.74992970e-04, -1.75765511e-02,
          0., -8.60210229e-03, 0., 0., 0., 5.74992970e-04,
          3.27980667e-02, 0., 0., 0., 0., 0., 0., 0., -6.47963807e-02,
          0., 0., 0., 0., 0., 0., 0., 0., 0., 0., 0., 0., 0.,
          -1.75765511e-02, -8.97444878e-03, -3.49504575e-02, 0., 0., 0.,
          -8.60210229e-03, 0., -1.75765511e-02, -8.39945581e-03, 0.,
          -8.97444878e-03, 0., 0., 0., -1.57965105e-02, 0., 0., 0., 0.,
          -8.97444878e-03, -8.60210229e-03, -4.41275500e-02, 0., 0., 0.,
          0., -8.97444878e-03, -8.60210229e-03, 0., -2.65510008e-02,
          -1.57965105e-02, 3.50980423e-02, 5.74992970e-04, 0., 0., 0.,
          -5.63639812e-02, 0., 0., 0., -1.79488976e-02, 0., 0., 0., 0.,
          3.27980667e-02, 3.27980667e-02, 0., 0., 3.39480527e-02, 0.,
          3.27980667e-02, 0., 0., 0., 0., 0., 0., 0., 0., 0., 0.,
          -1.75765511e-02, -2.41959654e-02, 6.90460950e-02, 0., 0.,
          2.41959654e-02, -8.39945581e-03, -8.39945581e-03, 0., 0.,
          -5.11193126e-02, 0., 0., 0., -2.38236189e-02, 0., 0., 0. ]
      - [ 2.30782889e-02, -1.98828336e-02, 0., 0., 0., 0.,
          2.30782889e-02, 0., 2.30782889e-02, 0., 2.30782889e-02, 0., 0.,
          0., 3.30197066e-02, 0., 0., 9.94141679e-03, 0., 0., 0., 0., 0.,
          0., 0., 9.94141679e-03, 9.94141679e-03, 0., 3.30197066e-02, 0.,
          -3.30197066e-02, 0., 0., 0., 0., -3.30197066e-02,
          9.94141679e-03, 1.98828336e-02, 0., 0., 0., 0., 0., 0.,
          2.30782889e-02, 0., 0., 0., 0., 0., 0., -9.90591124e-02, 0.,
          0., 0., 3.30197066e-02, 0., 0., 0., -2.30782889e-02,
          -2.30782889e-02, 9.94141679e-03, 0., 2.30782889e-02,
          -1.15746491e-01, 0., 9.94141679e-03, 9.94141679e-03, 0., 0.,
          0., 2.30782889e-02, 0., 0., 0., 0., 0., 0., -3.30197066e-02,
          0., 0., 0., 0., 2.30782889e-02, 3.30197066e-02, 0., 0.,
          9.94141679e-03, 0., 2.30782889e-02, 0., 0., 0., 0., 0., 0.,
          2.30782889e-02, 9.94141679e-03, -3.30197066e-02, 0., 0., 0.,
          0., 0., 0., -2.30782889e-02, 0., 0., 0., 0., 0., 0., 0., 0.,
          0., 0., 0., 0., 0., 0., 0., 2.30782889e-02, 0., 0., 0., 0., 0.,
          0., -4.29611206e-02, 0., 0., 0., 0., 0., 0., 0., 0., 0., 0.,
          0., 0., 0., 0., 0., 0., -3.30197066e-02, 0., -6.60394132e-02,
          0., 0., 0., 3.19545530e-03, 2.30782889e-02, 0., 0., 0., 0., 0.,
          0., 0., -6.60394132e-02, -3.30197066e-02, 0., 0., 0.,
          9.94141679e-03, 9.94141679e-03, 0., 0., -9.94141679e-03, 0.,
          9.94141679e-03, 0., 0., 0., 0., 0., 0., 0., 0., 0., 0., 0.,
          2.30782889e-02, 9.23131555e-02, 0., 0., 9.94141679e-03,
          2.30782889e-02, 2.30782889e-02, 0., 0., 2.30782889e-02, 0., 0.,
          0., 2.30782889e-02, 0., 0., 0. ]
      - [ 1.08545208e-02, 2.17090417e-02, 0., 0., 0., 0.,
          -3.67403328e-02, 0., 1.08545208e-02, 0., 1.08545208e-02, 0.,
          0., 0., 1.79891810e-02, 0., 0., 6.13653399e-02, 0., 0.,
          -2.72211749e-02, 0., 0., 0., 0., 6.13653399e-02,
          1.61549859e-02, 0., 7.22198635e-02, 0., 0., 0., 0., 0., 0., 0.,
          6.13653399e-02, 1.22730680e-01, 0., 0., 0., 0., 0., 0.,
          -1.63666531e-02, -2.37974264e-02, 0., 0., 0., 0., 0., 0., 0.,
          0., -4.75948527e-02, 7.86440223e-02, 0., 0., 0.,
          6.13653399e-02, 6.13653399e-02, 7.91428536e-02, 0.,
          1.08545208e-02, 1.29916221e-01, 0., 6.13653399e-02,
          3.75679135e-02, 0., 0., 0., -1.29429055e-02, 0., 0., 0., 0.,
          0., 0., 0., 0., 0., 0., 0., 1.08545208e-02, 1.17218554e-01, 0.,
          0., 6.13653399e-02, 0., 1.08545208e-02, 0., 0., 0., 0.,
          -1.79891810e-02, 0., 1.08545208e-02, 6.13653399e-02, 0., 0.,
          0., 0., 0., 0., 0., 6.73852563e-02, 0., 0., 0., 0., 0., 0., 0.,
          0., 0., 0., 0., 0., 0., 0., -4.75948527e-02, 1.08545208e-02,
          -1.79891810e-02, 0., 0., 0., 0., 0., 1.08545208e-02, 0., 0.,
          0., 0., 0., 0., 0., 0., 0., -2.37974264e-02, 0., 0., 0., 0.,
          -3.21207987e-03, 0., 0., 0., 0., 0., 0., 0., 5.71885705e-02,
          1.08545208e-02, 0., 0., 0., -2.44133417e-02, 0., 0., 0., 0.,
          -7.48160258e-02, 0., -2.72211749e-02, 0., 6.13653399e-02,
          6.13653399e-02, 0., -2.12012623e-02, 7.98623040e-02, 0.,
          6.13653399e-02, 0., 0., 0., 0., 0., 0., 0., 0., 0., 0.,
          -3.21207987e-03, 1.08545208e-02, 3.52253430e-02, 0., 0.,
          6.13653399e-02, 1.08545208e-02, 1.08545208e-02, 0., 0.,
          1.08545208e-02, 0., 0., 0., 1.08545208e-02, 0., 0., 0. ]
      - [ 1.57903638e-02, 4.41023754e-03, 0., 0., -2.63395272e-02, 0.,
          -1.57673322e-02, -1.63742695e-02, 2.13684142e-02, 0.,
          2.13684142e-02, 0., 0., 0., 3.51083577e-02, 0.,
          -4.82918471e-02, 3.56922634e-02, 0., 0., -5.57805039e-03, 0.,
          -1.63742695e-02, 0., 0., 3.56922634e-02, 2.13453826e-02,
          -2.19523199e-02, 5.70606776e-02, 0., 0., 0., 0., 0., 0.,
          -3.19175757e-02, 3.56922634e-02, 7.13845268e-02, 0., 0.,
          -4.15229537e-02, 0., 0., 0., 1.57903638e-02, 0.,
          -4.27137949e-02, 0., 0., -6.90533221e-02, -5.14826290e-02,
          -1.99249312e-02, 0., 0., -4.27137949e-02, 6.61893934e-02, 0.,
          0., 0., -3.01646944e-02, 3.01142149e-02, 5.64537421e-02,
          -1.43468818e-02, 4.99414420e-03, -7.78503045e-02, 0.,
          3.56922634e-02, 9.35273711e-03, 0., 0., 0., 2.13684142e-02, 0.,
          -1.63742695e-02, 0., 0., 0., 0., -2.19523199e-02,
          -4.30406444e-02, 0., 0., 0., 6.06936926e-04, 1.08543307e-01,
          -2.07614768e-02, 0., -1.14087388e-02, 0., 2.13684142e-02, 0.,
          0., 0., 0., 0., 0., 1.44348165e-03, 3.56922634e-02, 0.,
          -2.07614768e-02, 0., 0., 0., -5.57805039e-03, 0.,
          4.32977043e-02, 0., 0., 0., 0., 0., 0., 0., 0.,
          -1.63742695e-02, 0., 0., 0., 0., 0., 0., 2.13684142e-02, 0.,
          -5.57805039e-03, 0., -1.63742695e-02, 0., 0., 1.02123125e-02,
          0., 0., -1.43468818e-02, 0., 0., 0., 0., -5.57805039e-03, 0.,
          -2.07614768e-02, 0., -1.43468818e-02, 0., 0., 0., 0.,
          -2.19523199e-02, 0., 0., 0., -1.63742695e-02, -1.43468818e-02,
          1.06819041e-01, 2.13684142e-02, 0., 0., 0., -3.42718139e-02,
          0., 0., 0., -3.07211503e-02, -2.19523199e-02, 0., 0., 0.,
          3.01142149e-02, 3.01142149e-02, 0., 0., -7.75695145e-02, 0.,
          3.56922634e-02, 0., 0., 0., 0., 0., 0., -2.86937635e-02, 0.,
          0., 0., 0., 2.13684142e-02, 1.15003966e-01, -3.27485390e-02,
          -1.43468818e-02, 2.13453826e-02, 2.13684142e-02,
          2.13684142e-02, 0., 0., -5.83906367e-04, 0., 0., 0.,
          1.02123125e-02, 0., 0., 0. ]
      - [ 2.01653931e-02, 4.03307863e-02, 0., 0., -6.15774235e-03, 0.,
          -2.91924458e-03, 0., 1.67211751e-03, 0., 2.01653931e-02, 0.,
          0., 0., 1.21737141e-02, 0., 0., 6.68427274e-02, 0., 0., 0., 0.,
          0., 0., -1.56638050e-03, 6.68427274e-02, 4.83494550e-02, 0.,
          8.70081261e-02, -4.59136209e-03, 0., -2.86651347e-02, 0., 0.,
          0., -9.89081860e-02, 6.68427274e-02, 1.15192182e-01, 0., 0.,
          0., 0., 0., 0., 9.41628870e-03, 0., 0., 0., 0., 0.,
          -3.13276099e-03, 0., 0., 0., -2.86651347e-02, 1.08515970e-01,
          0., 0., 0., 4.37580943e-02, 6.68427274e-02, 1.53850853e-01, 0.,
          -4.17562388e-02, 4.16267253e-02, 0., 6.68427274e-02,
          4.67830747e-02, 0., 0., 0., 2.01653931e-02, -4.59136209e-03,
          -6.15774235e-03, -3.32564972e-02, 0., 0., 0., 0.,
          -6.26552198e-03, 0., 0., 0., 1.85990129e-02, 1.26857832e-01,
          0., 0., 6.68427274e-02, 0., 2.01653931e-02, 0., 0., 0., 0., 0.,
          0., -2.08152272e-02, 6.68427274e-02, -1.84932761e-02, 0., 0.,
          0., 0., 0., 0., -5.02891280e-02, 0., 0., 0., 0., 0., 0., 0.,
          -1.84932761e-02, 0., 0., 0., 0., 0., 0., 0., -1.30911041e-02,
          0., 0., 0., 0., 0., -2.30846368e-02, 2.01653931e-02, 0., 0.,
          0., 0., 0., 0., 0., 0., 0., 0., -2.86651347e-02, 0.,
          -1.84932761e-02, 0., 0., 0., 0., 0., 0., 0., -4.59136209e-03,
          0., 9.37526748e-02, 2.01653931e-02, 0., 0., 0., 0., 0., 0., 0.,
          -6.56516850e-02, -1.84932761e-02, 0., 0., 0., 6.06849864e-02,
          9.51246172e-03, 0., 0., 6.88901842e-02, 0., 6.68427274e-02, 0.,
          0., 0., 0., 0., 0., -2.86651347e-02, -1.84932761e-02, 0., 0.,
          0., 2.01653931e-02, 8.17924812e-02, 0., 0., 3.81775945e-02,
          2.01653931e-02, 2.01653931e-02, -1.84932761e-02, 0.,
          1.55740306e-02, 0., 0., 0., 1.67211751e-03, 0., 0., 0. ]
      - [ 3.58074009e-02, -9.26295668e-02, 0., 0., 0., 0.,
          3.46175767e-02, 0., 3.58074009e-02, -2.50906385e-02,
          1.19065857e-02, 0., -2.50906385e-02, -2.39008144e-02,
          6.91817403e-02, -8.54212977e-03, -1.84672698e-02,
          5.74624501e-02, 0., -1.81523263e-02, 0., 0., 0., 0., 0.,
          3.35616358e-02, 1.39045427e-02, 0., 8.29980224e-02, 0.,
          -7.40544274e-02, -1.27456598e-02, 0., 0., -1.18982396e-03,
          -7.17024431e-02, 3.63271544e-03, 1.14924900e-01, 0., 0.,
          -1.02718268e-02, 0., 0., 0., 3.58074009e-02, -2.50906385e-02,
          -2.50629745e-02, 0., 0., 0., -3.88119482e-02, -2.50906385e-02,
          0., 0., -4.69183028e-02, 1.07385948e-01, 0., -8.54212977e-03,
          0., 5.74624501e-02, 4.89203222e-02, 8.54718238e-02, 0.,
          3.58074009e-02, -4.33166185e-03, -2.37731654e-02,
          3.35616358e-02, -6.44590408e-02, 0., 0., 0., 3.58074009e-02,
          0., -2.39008144e-02, 0., -8.54212977e-03, 0., 0.,
          -9.95473191e-02, -1.70842595e-02, 0., 0., 0., 1.31023023e-02,
          1.43109441e-01, -2.39008144e-02, 0., 3.23718116e-02, 0.,
          3.58074009e-02, 0., 0., 0., -2.40881089e-02, 0., 0.,
          -5.98537773e-02, 1.27147185e-02, -1.84672698e-02, 0., 0., 0.,
          0., 0., -1.02718268e-02, -5.35969883e-02, 0., 0., 0., 0., 0.,
          0., 0., 0., 0., 0., -1.18982396e-03, 0., -1.27456598e-02, 0.,
          0., 2.18719169e-02, -5.62083907e-03, 0., 0., -2.40881089e-02,
          0., 0., 3.58074009e-02, 0., 0., -1.27456598e-02,
          -4.23680842e-02, 0., 0., 0., 0., 0., -8.54212977e-03, 0.,
          -5.64360842e-02, -8.54212977e-03, 0., 0., 0., -6.31544217e-02,
          0., -1.27456598e-02, 0., -1.18982396e-03, -5.62083907e-03,
          1.13958485e-01, 3.58074009e-02, 0., 0., 0., -3.66464742e-02,
          0., 0., 0., -5.26340194e-02, -4.72063646e-02, 0.,
          -2.39008144e-02, 0., -2.86508352e-02, 5.74624501e-02,
          -1.88139565e-02, 0., -3.07107018e-03, -1.02718268e-02,
          4.49309647e-02, 0., 0., 0., 0., 0., 0., -9.73195396e-03,
          -1.27456598e-02, 0., 0., 0., 3.36445635e-03, 2.11173892e-02,
          0., -2.70093996e-02, 5.74624501e-02, 3.46175767e-02,
          3.58074009e-02, 0., 0., -1.19942287e-02, 0., 0.,
          -2.50906385e-02, 3.58074009e-02, 0., 0., -5.62083907e-03 ]
      - [ 0., 0., 0., 0., 7.31863827e-03, 0., -7.38867139e-03, 0., 0.,
          7.31863827e-03, 3.45760607e-03, 0., 0., 0., -3.65269482e-02,
          3.56872045e-02, 3.34373722e-03, 0., 0., 0., 0., 0., 0., 0., 0.,
          0., -1.20138213e-01, 0., -3.65269482e-02, 0., 0., 0., 0., 0.,
          0., 5.55162728e-02, -2.45372668e-01, 0., 0., 0., 0., 0., 0.,
          0., -2.12750793e-01, 0., -2.50997348e-03, 3.45760607e-03, 0.,
          0., -1.22444279e-01, 3.45760607e-03, -3.65269482e-02, 0.,
          -2.38870651e-01, -8.89556541e-04, 0., 9.45274830e-02, 0.,
          2.20464826e-01, 0., 1.34275794e-01, 0., 1.46372765e-02,
          -1.68268815e-01, 3.56872045e-02, 7.31863827e-03,
          -7.70301893e-02, 0., 0., 0., 3.16482484e-02, 3.65209691e-02,
          0., 0., 3.56872045e-02, 0., 0., 3.45760607e-03,
          -3.79932709e-02, 0., 0., 0., 0., 0., 3.34373722e-03, 0., 0.,
          0., 0., 1.06085151e-01, 0., 0., 1.57585591e-01, 0.,
          3.34373722e-03, -5.51125640e-03, 0., 1.02627546e-01,
          3.45760607e-03, 0., 0., 0., 0., 0., 2.31210858e-01, 0., 0., 0.,
          0., 0., 0., 0., 0., -2.50997348e-03, 0., 0., 0.,
          3.45760607e-03, 3.16482484e-02, 1.46372765e-02, 1.61624551e-01,
          0., 0., 0., 0., 1.25937343e-01, 3.45760607e-03,
          -3.83525491e-02, 0., 0., 0., -2.50997348e-03, 0.,
          1.61167711e-01, 0., 0., 0., 0., 0., 0., 1.80948824e-02, 0., 0.,
          0., 3.45760607e-03, 0., -2.50997348e-03, 0., 1.25937343e-01,
          7.31863827e-03, 6.91521214e-03, 0., 0., 0., 0.,
          -1.02652676e-01, 0., 0., 0., -1.98909208e-01, -1.64289892e-01,
          0., 0., 0., 3.56872045e-02, 7.31863827e-03, 0., 0., 0.,
          -2.28084639e-01, -4.15468961e-02, 0., 0., 0., 3.16482484e-02,
          0., 0., 1.40574619e-01, 0., -8.21449459e-02, 0., 0.,
          1.48398764e-02, -3.62407148e-01, 3.45760607e-03,
          3.16482484e-02, 0., 0., 0., 0., -3.65269482e-02,
          5.83286919e-02, 0., 0., 0., -8.21449459e-02, 3.56872045e-02,
          0., 0. ]
      - [ 0., -1.38522461e-01, 0., 0., 4.88278829e-03, 0.,
          2.79824492e-02, 0., 0., -5.69957159e-02, 1.96439885e-02, 0.,
          0., -1.00878023e-01, -6.18785061e-02, -5.95103242e-02,
          1.32919177e-02, 0., 0., 0., 0., 0., 0., -6.18785061e-02, 0.,
          0., -6.18785061e-02, 0., -1.61322907e-01, 0., 0., 0., 0.,
          3.39988954e-02, 0., -9.76029560e-02, 0., -1.95321798e-01, 0.,
          0., 0., 0., 0., 0., 1.12475544e-01, 0., -5.93913496e-02,
          -1.00516863e-02, 0., 0., 2.36818031e-03, 1.96439885e-02, 0.,
          0., 1.17254496e-01, 1.29304737e-01, 0., 5.58395162e-02, 0.,
          8.04678649e-02, 0., 4.31647711e-02, -1.95321798e-01,
          9.76557657e-03, 3.90685573e-02, -1.21388830e-01,
          -2.29968224e-02, -2.96199828e-01, 0., -6.18785061e-02, 0.,
          -3.26725215e-01, -2.47079171e-02, 0., 0., 2.36818031e-03, 0.,
          0., -8.66956413e-02, 0., 0., 0., 0., -5.67531809e-02,
          -2.96956748e-02, -1.64037570e-02, 0., -5.93913496e-02, 0., 0.,
          3.99516337e-02, 0., 0., -1.57751337e-01, 0., 1.32919177e-02,
          2.68452000e-02, -1.95321798e-01, 2.03076452e-02,
          -5.77776413e-03, 0., 0., 0., 0., 0., -3.89632136e-02, 0., 0.,
          0., 0., 0., -7.66439512e-02, -6.18785061e-02, 0., 0., 0.,
          -6.18785061e-02, 0., -5.15383594e-02, 1.18734524e-01,
          4.37644683e-02, -8.83078261e-04, 0., 0., 0., 0.,
          6.37525693e-02, -1.13753147e-01, -3.29469331e-02, 0., 0., 0.,
          0., 1.69900045e-01, 1.33421451e-01, 0., 0., 0., 0., 0.,
          -1.95321798e-01, 2.94095650e-02, 0., 0., 0., 2.90725306e-02,
          0., -1.95321798e-01, 0., 6.72043860e-02, 1.00081116e-02,
          8.86628404e-02, 0., 0., 0., 0., 1.60681501e-01, 0., 0., 0.,
          3.20202820e-02, -2.96956748e-02, 0., 0., 0., 1.72268227e-01,
          1.79908156e-01, -7.66439512e-02, -2.45703515e-02,
          -5.93913496e-02, 9.82199460e-02, -7.11823478e-02, 0.,
          -7.11823478e-02, 0., 8.47356319e-02, 0., 0., 6.83928207e-02,
          0., 3.39988954e-02, 0., 0., -3.18854116e-02, 0.,
          1.96439885e-02, 8.47356319e-02, 0., 0., -6.18785061e-02,
          -7.15186298e-02, -7.11823478e-02, -4.44811583e-02, 0., 0., 0.,
          0., -7.42757767e-02, 0., 0. ]
      - [ -6.51602224e-02, -6.51602224e-02, 0., 0., -5.05010933e-02, 0.,
          2.52785608e-02, 0., 0., 2.86040884e-02, 1.49930045e-02, 0., 0.,
          0., -2.07958177e-01, 1.23233497e-02, -5.82745038e-02, 0.,
          -6.51602224e-02, -1.39449593e-02, 0., 0., -6.51602224e-02, 0.,
          -6.51602224e-02, 0., -2.78899185e-02, 0., -9.30171460e-02,
          -6.51602224e-02, 0., 0., 0., -9.95549932e-03, 0.,
          4.46451381e-02, 0., 0., 0., 0., 0., 0., 0., 0., 1.40009876e-02,
          -9.70066041e-02, -1.39449593e-02, 1.49930045e-02, 0.,
          -7.91051835e-02, 1.23233497e-02, 1.49930045e-02,
          -6.51602224e-02, 0., 0., 8.36451948e-02, 0., -4.46048789e-02,
          0., -4.85943370e-02, -2.78899185e-02, 1.28067862e-02, 0.,
          -7.31122717e-02, 4.27344963e-02, -8.46832544e-02,
          3.25935483e-02, 0., 0., 0., 0., -1.82679608e-01,
          -4.79277335e-02, -6.51602224e-02, 0., 1.23233497e-02, 0., 0.,
          1.49930045e-02, -2.78899185e-02, 0., 0., 0., 0., 0.,
          6.88571949e-03, 0., 0., 0., 0., -4.86940332e-02, 0.,
          -6.51602224e-02, 2.52785608e-02, 0., 6.88571949e-03,
          3.21642794e-02, 0., 1.54181430e-02, 6.70465827e-02, 0., 0., 0.,
          0., 0., -1.51521321e-02, 0., 0., 0., 0., 0., 0., 0., 0., 0.,
          0., 0., 0., 1.49930045e-02, -4.98371609e-02, 4.72526774e-02,
          -9.46717486e-02, 0., 0., 0., -6.51602224e-02, 0.,
          -6.41121790e-02, -1.39449593e-02, 0., -1.39449593e-02, 0., 0.,
          5.20535782e-02, -2.29978785e-02, 0., 0., 0., 0.,
          -1.39449593e-02, -6.51602224e-02, -9.99541432e-02, 0., 0., 0.,
          1.89824644e-02, -1.39449593e-02, -6.51602224e-02, 0.,
          -3.70071046e-02, -6.84025213e-02, 3.39754671e-02, 0., 0., 0.,
          0., -1.95183694e-01, 0., 0., 0., 2.80305240e-02, 0., 0., 0.,
          0., 6.43769279e-02, 8.06576684e-02, 0., 0., 0., 7.49650225e-02,
          0., 0., 0., 0., 2.52785608e-02, 0., 0., 5.72081767e-02, 0.,
          3.98945995e-03, 0., -7.91051835e-02, -6.16903193e-02, 0.,
          1.49930045e-02, 2.52785608e-02, -6.51602224e-02,
          -1.39449593e-02, -1.39449593e-02, 0., 0., -8.70254785e-02, 0.,
          0., 0., -1.62166834e-01, 1.23233497e-02, 0., 0. ]
      - [ 0., -3.56653593e-02, 0., 0., 0., 0., 1.34023197e-03, 0., 0.,
          0., 2.34731985e-03, 0., 0., 0., 0., 2.41308706e-03, 0., 0., 0.,
          0., 0., 0., 0., 0., 0., 0., 0., 0., 0., 0., -1.78326797e-02,
          0., 0., 0., 0., -7.17110792e-03, 0., 0., 0., 0., 0., 0., 0.,
          0., 0., 0., 0., 2.34731985e-03, 0., 0., 2.41308706e-03,
          -5.11507206e-02, 0., 0., 1.19338650e-02, -1.53538259e-02, 0.,
          0., 0., -1.18657481e-02, -1.78326797e-02, -1.20675713e-02, 0.,
          0., -1.44001678e-01, 2.41308706e-03, 0., 0., 0., 0., 0., 0.,
          2.41308706e-03, 0., 0., 2.41308706e-03, 0., 0.,
          -1.54853603e-02, 0., 0., 0., 0., 1.34023197e-03,
          -1.78326797e-02, 0., 0., 0., 0., 0., 8.11242871e-03, 0., 0.,
          5.96693251e-03, 0., 0., 0., 0., -1.20675713e-02,
          2.34731985e-03, 0., 0., 0., 0., 0., 1.18703051e-02, 0., 0., 0.,
          0., 0., 0., 0., 0., 0., 0., 0., 0., 2.34731985e-03, 0., 0.,
          8.38001911e-03, 0., 0., 0., 0., 7.30716437e-03, 3.68755171e-03,
          -2.96984278e-02, 0., 0., 0., 0., 0., 0., 0., 0., 0., 0., 0.,
          0., 2.34731985e-03, 0., 0., 0., -1.41451284e-02, 0.,
          -3.56653593e-02, 0., 5.96693251e-03, 1.34023197e-03,
          -4.47827056e-02, 0., 0., 0., 0., 1.28728356e-02, 0., 0., 0.,
          -2.95647215e-02, -1.78326797e-02, 0., 0., 0., 2.41308706e-03,
          1.34023197e-03, 0., 1.34023197e-03, -3.56653593e-02,
          1.17365988e-02, 0., 0., 0., 0., 0., 0., 0., 5.96693251e-03, 0.,
          0., 0., 0., 0., -3.56653593e-02, 2.34731985e-03, 0., 0., 0.,
          0., 1.34023197e-03, 0., 7.10772676e-03, 0., 0., 0., 0.,
          2.41308706e-03, 0., 0. ]
      - [ 0., 0., 0., 0., 1.33597013e-02, 0., -2.39414781e-01, 0., 0.,
          1.33597013e-02, 0., 0., 0., 0., -1.38134971e-01,
          5.51387221e-02, 6.33842573e-02, 0., 0., 0., -8.06966946e-02,
          0., 0., 0., 0., 0., -3.49405885e-01, 0., 0., 0., 0., 0., 0.,
          0., 0., -1.06644236e-01, 0., 0., 0., 0., 0., 0., 0., 0.,
          -6.02639886e-03, -3.29261869e-01, 0., 0., 0., 0.,
          5.51387221e-02, 0., -2.90608197e-03, 0., 7.39639997e-02,
          -1.34780869e-01, 0., 1.23301283e-01, 0., 1.61736324e-01, 0.,
          4.58147265e-02, 0., 2.67194025e-02, 1.00965053e-01,
          5.51387221e-02, 1.33597013e-02, -1.73728973e-01, 0., 0., 0.,
          3.21083404e-02, 1.18522979e-01, -2.90608197e-03, 0.,
          5.51387221e-02, 0., 0., 0., 0., 0., 0., 0., 5.77387549e-02,
          -8.06966946e-02, 6.33842573e-02, 0., 0., 0., 0.,
          3.33538771e-01, 0., 0., 7.05433786e-02, -2.68709183e-01,
          6.33842573e-02, 9.54925939e-02, 0., 3.33538771e-01,
          1.91011801e-02, 0., 0., 0., 0., 0., 5.23622893e-02, 0., 0., 0.,
          0., 0., 0., 0., 0., 0., 0., 0., 0., 0., 3.21083404e-02,
          2.67194025e-02, 9.35737640e-02, -2.68709183e-01, 0., 0., 0.,
          9.61737931e-02, 5.77387549e-02, 3.84350382e-02, 0., 0., 0., 0.,
          1.91011801e-02, 2.50902206e-01, -1.70822889e-01, 0., 0., 0.,
          0., 0., 2.67194025e-02, 0., -5.45321964e-02, 0.,
          5.77387549e-02, 0., 0., 0., 5.75362220e-02, 7.10984543e-02,
          1.70310184e-01, 0., 0., 0., 0., -1.40817806e-01, 0., 0., 0.,
          1.26237184e-01, -8.65088627e-02, 0., -8.06966946e-02, 0.,
          7.42399022e-02, 9.01996344e-02, 0., -2.65502632e-01,
          -5.45321964e-02, 0., 0., 0., -1.58438981e-01, 0.,
          3.21083404e-02, 0., 0., 6.51544407e-02, 0., 0., 0.,
          -5.45321964e-02, 3.26895714e-02, -3.56918305e-01, 0.,
          3.21083404e-02, 0., 0., -1.58438981e-01, 5.77387549e-02, 0.,
          2.41824254e-01, 0., 0., -1.58438981e-01, -1.70822889e-01,
          5.51387221e-02, 0., 0. ]
      - [ 0., -1.70005932e-02, 0., 0., -3.83597501e-02, 0.,
          -4.68600467e-02, -8.50029662e-03, 0., 0., 0., 0., 0., 0.,
          -8.50029662e-03, 1.17042586e-02, -4.52659465e-02, 0., 0., 0.,
          0., 0., -8.50029662e-03, 0., 0., 0., -1.01369638e-02,
          -8.50029662e-03, 0., 0., 0., 0., 0., 0., 0., -1.55533468e-02,
          0., 0., 0., 0., -7.67195001e-02, 0., 0., 0., 0., 0.,
          -4.68600467e-02, 0., 0., -8.52198005e-02, -4.52927537e-02,
          -1.01369638e-02, 0., 0., -1.24723848e-03, -2.87636239e-02, 0.,
          0., 0., -2.69448454e-03, 0., 2.25498644e-03, -1.01369638e-02,
          -8.50029662e-03, -2.11496323e-01, 1.17042586e-02, 0.,
          -3.83597501e-02, 0., 0., 0., 0., 1.32983606e-02,
          -8.50029662e-03, 0., 1.17042586e-02, 0., 0., -8.50029662e-03,
          -3.04108914e-02, 0., 0., 0., -3.83597501e-02, 0.,
          -3.67656499e-02, 0., -7.67195001e-02, 0., 0., 2.08922457e-02,
          0., 0., 2.28064042e-02, 0., 1.59410131e-03, -8.54286272e-03,
          0., 2.08922457e-02, -3.83597501e-02, 0., 0., 0., 0., 0.,
          4.26640958e-02, 0., 0., 0., 0., 0., 0., 0., 0.,
          -8.50029662e-03, 0., 0., 0., 0., 0., 0., 3.45106646e-02, 0.,
          0., 0., -8.50029662e-03, 2.28064042e-02, 0., 2.28064042e-02,
          0., 0., -1.01369638e-02, 0., 0., 1.59410131e-03, 0., 0., 0.,
          -3.83597501e-02, 0., -1.01369638e-02, 0., 0., 0., 0.,
          -8.50029662e-03, 0., 0., 0., 1.43061085e-02, -1.01369638e-02,
          -1.01369638e-02, 0., 0., 0., 0., 1.23225776e-02, 0., 0., 0.,
          -6.93300087e-03, -8.50029662e-03, 0., 0., 0., 1.17042586e-02,
          0., 0., 0., -1.32631287e-01, 0., 0., 0., 0., 0., 0., 0., 0.,
          2.53247726e-03, 0., 0., 0., 0., 4.78230370e-03,
          -6.54973090e-02, -1.70005932e-02, -1.01369638e-02,
          -1.01369638e-02, 0., 0., 0., 0., 4.79806401e-03, 0., 0., 0.,
          0., 1.17042586e-02, 0., 0. ]
      - [ 0., 0., 0., 0., 4.12032008e-02, 0., 8.83281082e-02, 0., 0.,
          4.12032008e-02, 4.11201920e-03, 0., 0., 0., -3.71891893e-02,
          3.05375177e-02, 0., 0., 0., 0., 0., 0., -2.62070119e-01, 0.,
          -4.63264668e-03, 0., -2.00847715e-01, 0., 0., 0., 0.,
          -3.71891893e-02, 0., 0., 0., -1.51075453e-01, 0., 0., 0., 0.,
          0., 0., 0., 0., -1.47729889e-01, 0., 0., 4.11201920e-03, 0.,
          0., 3.05375177e-02, 4.11201920e-03, 0., 0., 1.02992304e-01,
          8.26774463e-02, 0., 1.35108173e-01, 0., 2.05198914e-01, 0.,
          2.23323599e-01, 0., 8.02802294e-03, -2.65905768e-01,
          3.05375177e-02, 4.12032008e-02, 0., 0., 0., 0.,
          -3.45237292e-02, 3.05375177e-02, -7.34085664e-02,
          -3.71891893e-02, 3.05375177e-02, 0., 0., 4.11201920e-03,
          -2.00847715e-01, 0., 0., 0., -2.39652917e-02, -4.18218337e-02,
          0., 0., -7.34085664e-02, 0., 0., 1.88550785e-01,
          -4.63264668e-03, 0., 1.08975582e-01, 0., 0., -7.17129186e-02,
          0., 1.84438765e-01, -2.38261029e-01, 0., 0., 0., 0., 0.,
          1.01573922e-01, -1.46817133e-01, 0., 0., 0., 0., 0., 0., 0.,
          0., 0., 0., 0., 4.11201920e-03, 3.88848335e-02, 8.24064016e-02,
          6.34390712e-02, 0., 0., 0., 0., 1.19534016e-01, 5.35552911e-02,
          7.00907409e-02, 0., 0., 0., 0., 1.96970552e-02, 2.12877840e-01,
          0., 0., 0., 0., -3.71891893e-02, 0., 8.65184143e-02, 0., 0.,
          0., 5.35552911e-02, 0., 0., 0., 1.17465900e-02, 9.06464681e-02,
          -4.42938581e-02, 0., 0., 0., 0., 4.66823094e-02, 0., 0., 0.,
